<?xml version="1.0"?>
<opencv_storage>
<cascade>
  <stageType>BOOST</stageType>
  <featureType>LBP</featureType>
  <height>40</height>
  <width>40</width>
  <stageParams>
    <boostType>GAB</boostType>
    <minHitRate>9.9900001287460327e-01</minHitRate>
    <maxFalseAlarm>5.0000000000000000e-01</maxFalseAlarm>
    <weightTrimRate>9.4999999999999996e-01</weightTrimRate>
    <maxDepth>1</maxDepth>
    <maxWeakCount>100</maxWeakCount></stageParams>
  <featureParams>
    <maxCatCount>256</maxCatCount>
    <featSize>1</featSize></featureParams>
  <stageNum>20</stageNum>
  <stages>
    <!-- stage 0 -->
    <_>
      <maxWeakCount>4</maxWeakCount>
      <stageThreshold>-1.5532069206237793e+00</stageThreshold>
      <weakClassifiers>
        <_>
          <internalNodes>
            0 -1 36 -482163974 -774400806 16777216 -749268517 -125111617
            -1198939960 864851375 1396175615</internalNodes>
          <leafValues>
            -8.7607574462890625e-01 7.5432211160659790e-01</leafValues></_>
        <_>
          <internalNodes>
            0 -1 88 -91273012 -83554233 -1072676851 1833320587
            -251016627 1786775560 -1476163446 -1395922229</internalNodes>
          <leafValues>
            -7.6541447639465332e-01 6.9158864021301270e-01</leafValues></_>
        <_>
          <internalNodes>
            0 -1 5 -561921846 1368850451 -989650657 -1021377791
            -1467823956 -1073118837 -2138404661 1429449355</internalNodes>
          <leafValues>
            -8.4814935922622681e-01 5.7563310861587524e-01</leafValues></_>
        <_>
          <internalNodes>
            0 -1 30 -770993655 -2129264637 82067 -2120765422 -2130474869
            -1055784567 -930365011 -1416632831</internalNodes>
          <leafValues>
            -6.9396519660949707e-01 6.9573348760604858e-01</leafValues></_></weakClassifiers></_>
    <!-- stage 1 -->
    <_>
      <maxWeakCount>4</maxWeakCount>
      <stageThreshold>-1.5054217576980591e+00</stageThreshold>
      <weakClassifiers>
        <_>
          <internalNodes>
            0 -1 47 -951588189 -989363576 -2097070016 -743734914
            1141608927 1095467907 805539007 1409014683</internalNodes>
          <leafValues>
            -8.1882768869400024e-01 6.9919425249099731e-01</leafValues></_>
        <_>
          <internalNodes>
            0 -1 106 -288423932 -917962738 1073958024 -502333311
            -1165877239 -2147352576 -796753406 -24380533</internalNodes>
          <leafValues>
            -7.7201294898986816e-01 6.2779527902603149e-01</leafValues></_>
        <_>
          <internalNodes>
            0 -1 25 -178535702 -83328759 -1073381229 -545144160
            -391386898 -1060978175 -2096381713 -744228657</internalNodes>
          <leafValues>
            -7.8679424524307251e-01 6.3331258296966553e-01</leafValues></_>
        <_>
          <internalNodes>
            0 -1 44 -1056771589 -2129656781 -2105523945 -1768730544
            -1600870197 -1366589310 -2144951197 -747904937</internalNodes>
          <leafValues>
            -6.4580887556076050e-01 7.3590540885925293e-01</leafValues></_></weakClassifiers></_>
    <!-- stage 2 -->
    <_>
      <maxWeakCount>4</maxWeakCount>
      <stageThreshold>-3.8828837871551514e-01</stageThreshold>
      <weakClassifiers>
        <_>
          <internalNodes>
            0 -1 65 -216566785 -177630971 -1677696758 1887478038
            -1979541089 1528727682 -1577016677 323469879</internalNodes>
          <leafValues>
            -8.3870965242385864e-01 6.2162160873413086e-01</leafValues></_>
        <_>
          <internalNodes>
            0 -1 96 2021619575 2031292571 -1878961666 -704511353
            1653228311 -585694686 1766006839 -98385281</internalNodes>
          <leafValues>
            -8.2117861509323120e-01 5.4163265228271484e-01</leafValues></_>
        <_>
          <internalNodes>
            0 -1 39 -103557885 -104431480 -528381727 1967235136
            -253689462 176914561 -268395877 2007724863</internalNodes>
          <leafValues>
            -6.8846511840820312e-01 6.2028688192367554e-01</leafValues></_>
        <_>
          <internalNodes>
            0 -1 111 -225771512 -767213275 1074790400 2038497283
            -880752629 805896200 -1601665881 -78921553</internalNodes>
          <leafValues>
            -7.0008111000061035e-01 6.5131306648254395e-01</leafValues></_></weakClassifiers></_>
    <!-- stage 3 -->
    <_>
      <maxWeakCount>5</maxWeakCount>
      <stageThreshold>-7.8349864482879639e-01</stageThreshold>
      <weakClassifiers>
        <_>
          <internalNodes>
            0 -1 83 -16789842 1794092718 -84148225 -235147285 -564
            -857735172 -1428446996 -469778433</internalNodes>
          <leafValues>
            -6.2658226490020752e-01 6.8320608139038086e-01</leafValues></_>
        <_>
          <internalNodes>
            0 -1 13 -958151254 -1016166272 21041619 -879770669
            -335543906 168427590 -1743818429 -808456039</internalNodes>
          <leafValues>
            -7.2145116329193115e-01 5.6157165765762329e-01</leafValues></_>
        <_>
          <internalNodes>
            0 -1 61 -611200932 -1207901501 1628589407 -1198243707
            -513637957 -301465598 -628682273 -1009808753</internalNodes>
          <leafValues>
            -6.9752013683319092e-01 5.8898687362670898e-01</leafValues></_>
        <_>
          <internalNodes>
            0 -1 54 -774704254 2035814784 303153235 1342177608
            -1056415094 -1194786805 -1107099633 -538246949</internalNodes>
          <leafValues>
            -6.7826956510543823e-01 5.9985959529876709e-01</leafValues></_>
        <_>
          <internalNodes>
            0 -1 48 -1112932422 -340787288 -788621 -268960795
            -1342177313 134217719 402651127 -739248153</internalNodes>
          <leafValues>
            -6.2082749605178833e-01 7.2150468826293945e-01</leafValues></_></weakClassifiers></_>
    <!-- stage 4 -->
    <_>
      <maxWeakCount>6</maxWeakCount>
      <stageThreshold>-6.5455406904220581e-01</stageThreshold>
      <weakClassifiers>
        <_>
          <internalNodes>
            0 -1 8 -579862966 -585256951 352913851 2140214577 151240910
            1485343512 589015483 2008590989</internalNodes>
          <leafValues>
            -7.9466116428375244e-01 5.9262365102767944e-01</leafValues></_>
        <_>
          <internalNodes>
            0 -1 100 1381915487 1965248533 1082298602 -223369006
            -661949065 1006845954 -664733073 -285062605</internalNodes>
          <leafValues>
            -6.9497555494308472e-01 5.3546839952468872e-01</leafValues></_>
        <_>
          <internalNodes>
            0 -1 24 -636756821 -633240926 -650002304 -932061181
            -1060433461 -930528886 -1836071805 -540078583</internalNodes>
          <leafValues>
            -6.7370986938476562e-01 5.6297916173934937e-01</leafValues></_>
        <_>
          <internalNodes>
            0 -1 92 -2141714415 -494665728 -1056964543 -83863284
            -1610309631 -897548288 -662662526 -640503653</internalNodes>
          <leafValues>
            -6.6061764955520630e-01 5.6684756278991699e-01</leafValues></_>
        <_>
          <internalNodes>
            0 -1 4 -775503894 -107544238 1208008759 -205287167
            -1071406129 214519841 -2130605137 1368081163</internalNodes>
          <leafValues>
            -6.9889312982559204e-01 5.5846995115280151e-01</leafValues></_>
        <_>
          <internalNodes>
            0 -1 99 -94458236 -1722089447 18284929 -674397943 -936661480
            1386971405 -1563497834 -1157696546</internalNodes>
          <leafValues>
            -8.2629495859146118e-01 4.6651697158813477e-01</leafValues></_></weakClassifiers></_>
    <!-- stage 5 -->
    <_>
      <maxWeakCount>5</maxWeakCount>
      <stageThreshold>-9.9881654977798462e-01</stageThreshold>
      <weakClassifiers>
        <_>
          <internalNodes>
            0 -1 56 -905649681 -754728845 -2130652816 -581711564
            -2145824549 548612011 -773807958 2133026987</internalNodes>
          <leafValues>
            -7.5262051820755005e-01 5.6442224979400635e-01</leafValues></_>
        <_>
          <internalNodes>
            0 -1 35 -762587733 -2142879486 1498546335 -237125239
            -2061868390 -1957902334 990890659 -547360997</internalNodes>
          <leafValues>
            -6.2167108058929443e-01 5.7863306999206543e-01</leafValues></_>
        <_>
          <internalNodes>
            0 -1 45 -1953893400 -1073672192 -1877981568 -171737087
            -1584684413 8916992 545358978 -753184603</internalNodes>
          <leafValues>
            -6.4991444349288940e-01 5.5039691925048828e-01</leafValues></_>
        <_>
          <internalNodes>
            0 -1 115 -783593238 -720695031 1124221184 -233631477
            -1039556472 973275144 1661190801 1930162828</internalNodes>
          <leafValues>
            -7.4422651529312134e-01 5.2753698825836182e-01</leafValues></_>
        <_>
          <internalNodes>
            0 -1 42 -500106461 -779746813 25204099 1393754486
            -1022326269 -794720120 1921053239 1594858123</internalNodes>
          <leafValues>
            -7.0245158672332764e-01 5.2641946077346802e-01</leafValues></_></weakClassifiers></_>
    <!-- stage 6 -->
    <_>
      <maxWeakCount>6</maxWeakCount>
      <stageThreshold>-3.7024056911468506e-01</stageThreshold>
      <weakClassifiers>
        <_>
          <internalNodes>
            0 -1 79 -890269809 -794186049 -352321890 -83886081 -4180
            -587268100 -1141921554 1509949439</internalNodes>
          <leafValues>
            -5.2777779102325439e-01 6.4147287607192993e-01</leafValues></_>
        <_>
          <internalNodes>
            0 -1 81 -862546089 -669577205 -1877872165 -526864427
            813763851 -633651176 1569517887 -120695975</internalNodes>
          <leafValues>
            -6.5908139944076538e-01 5.1573926210403442e-01</leafValues></_>
        <_>
          <internalNodes>
            0 -1 33 -751844949 -823178846 -2063506495 -288845615
            -1970800502 1317486793 -1777208393 -548413665</internalNodes>
          <leafValues>
            -6.0320144891738892e-01 5.7340919971466064e-01</leafValues></_>
        <_>
          <internalNodes>
            0 -1 31 -1843343192 -1861873600 -775740157 -653195902
            -1274363729 -2139060088 -2138201683 -1727280639</internalNodes>
          <leafValues>
            -7.6969867944717407e-01 4.6393814682960510e-01</leafValues></_>
        <_>
          <internalNodes>
            0 -1 46 -1819747933 -355893078 385880163 1372913928
            -2113166949 196762 318869755 1474214059</internalNodes>
          <leafValues>
            -6.7694586515426636e-01 4.7088867425918579e-01</leafValues></_>
        <_>
          <internalNodes>
            0 -1 23 1519751853 -720121275 1493554225 -779517497
            272670958 1336033289 -2078029683 -677132146</internalNodes>
          <leafValues>
            -6.2544125318527222e-01 5.6391912698745728e-01</leafValues></_></weakClassifiers></_>
    <!-- stage 7 -->
    <_>
      <maxWeakCount>7</maxWeakCount>
      <stageThreshold>-9.9670159816741943e-01</stageThreshold>
      <weakClassifiers>
        <_>
          <internalNodes>
            0 -1 53 1888510050 -1480322944 -1856925228 1066701200
            -536702727 -1162772352 -1853631329 -238828383</internalNodes>
          <leafValues>
            -7.5981521606445312e-01 5.2044910192489624e-01</leafValues></_>
        <_>
          <internalNodes>
            0 -1 19 -1145181953 256346242 578912834 1602705737
            -2078633913 -1433823104 -1601855049 -1983128435</internalNodes>
          <leafValues>
            -5.5765682458877563e-01 5.9536492824554443e-01</leafValues></_>
        <_>
          <internalNodes>
            0 -1 3 17038511 -584957561 -2130669181 254362755 18006565
            -1365196760 1613938704 2143266987</internalNodes>
          <leafValues>
            -6.4915168285369873e-01 5.2654576301574707e-01</leafValues></_>
        <_>
          <internalNodes>
            0 -1 112 -443217876 -78970824 1358970906 -753991485
            -2147311585 839516161 16941727 -416548613</internalNodes>
          <leafValues>
            -6.2554097175598145e-01 5.9587419033050537e-01</leafValues></_>
        <_>
          <internalNodes>
            0 -1 63 -778808889 -1072820214 -922674406 -732323759
            -1160015666 -616038240 1104348554 2079050461</internalNodes>
          <leafValues>
            -6.8350279331207275e-01 4.8502519726753235e-01</leafValues></_>
        <_>
          <internalNodes>
            0 -1 66 -1986551350 -1423671294 -1056763770 -71073728
            -1744771009 16812178 -1953847085 -1848733528</internalNodes>
          <leafValues>
            -6.5190982818603516e-01 5.2932065725326538e-01</leafValues></_>
        <_>
          <internalNodes>
            0 -1 64 -1576282749 -2009037950 -785018735 -24674175
            -1300094802 184680449 34181339 -710174551</internalNodes>
          <leafValues>
            -6.1930006742477417e-01 6.0215657949447632e-01</leafValues></_></weakClassifiers></_>
    <!-- stage 8 -->
    <_>
      <maxWeakCount>6</maxWeakCount>
      <stageThreshold>-1.3772122859954834e+00</stageThreshold>
      <weakClassifiers>
        <_>
          <internalNodes>
            0 -1 49 1404408223 -1826782947 457350940 -748289666 67179003
            1162706976 1292413341 1472702626</internalNodes>
          <leafValues>
            -7.6036864519119263e-01 5.2166932821273804e-01</leafValues></_>
        <_>
          <internalNodes>
            0 -1 108 1928548831 -284604341 -1471037154 1381730502
            -97695625 -402415548 -1195113177 -81598105</internalNodes>
          <leafValues>
            -6.5147918462753296e-01 5.2222096920013428e-01</leafValues></_>
        <_>
          <internalNodes>
            0 -1 97 -537015089 -10527153 1333677807 -547529489
            -568398328 -547369402 2120208110 -23073025</internalNodes>
          <leafValues>
            -5.2297830581665039e-01 6.6044825315475464e-01</leafValues></_>
        <_>
          <internalNodes>
            0 -1 68 831504794 310411404 152084511 -653678844 -1073626209
            -1107294133 -792690341 1378610817</internalNodes>
          <leafValues>
            -7.7483260631561279e-01 4.6214497089385986e-01</leafValues></_>
        <_>
          <internalNodes>
            0 -1 7 -1061108246 1598259338 117991197 -548061121 151167482
            1494223014 52683138 -540031185</internalNodes>
          <leafValues>
            -5.9609937667846680e-01 5.6224882602691650e-01</leafValues></_>
        <_>
          <internalNodes>
            0 -1 12 354677535 -1091108865 122489353 -8454147 -32795
            1718943612 -269488177 -75563012</internalNodes>
          <leafValues>
            -4.9185824394226074e-01 6.9337218999862671e-01</leafValues></_></weakClassifiers></_>
    <!-- stage 9 -->
    <_>
      <maxWeakCount>7</maxWeakCount>
      <stageThreshold>-1.4078327417373657e+00</stageThreshold>
      <weakClassifiers>
        <_>
          <internalNodes>
            0 -1 105 -639680062 -652918260 352424131 1364410522
            847835659 268664843 1091256483 1396439483</internalNodes>
          <leafValues>
            -6.9105690717697144e-01 5.5555558204650879e-01</leafValues></_>
        <_>
          <internalNodes>
            0 -1 60 -787029976 -84369262 1090587085 -50003248 -601352139
            247993385 1208174731 2121608685</internalNodes>
          <leafValues>
            -7.5090342760086060e-01 4.2165452241897583e-01</leafValues></_>
        <_>
          <internalNodes>
            0 -1 70 17073246 -803950436 17105013 -661815090 3430630
            -1844019192 8688131 -398433722</internalNodes>
          <leafValues>
            -7.3916995525360107e-01 4.2875102162361145e-01</leafValues></_>
        <_>
          <internalNodes>
            0 -1 73 -933268571 -1290452717 -2130541678 -1140117227
            -1014267125 405962776 -402620109 -152934354</internalNodes>
          <leafValues>
            -7.3245823383331299e-01 3.8943535089492798e-01</leafValues></_>
        <_>
          <internalNodes>
            0 -1 18 1917821935 -2116722597 222659408 928232007
            -1731423509 -375914340 -1062800689 -2006032371</internalNodes>
          <leafValues>
            -5.8215790987014771e-01 5.4860371351242065e-01</leafValues></_>
        <_>
          <internalNodes>
            0 -1 28 -1148788094 1104134376 17006656 1194164466
            -1723673629 524418 -1828138799 -1039410979</internalNodes>
          <leafValues>
            -6.6032183170318604e-01 4.8015636205673218e-01</leafValues></_>
        <_>
          <internalNodes>
            0 -1 17 -1761573064 -16777150 2315679 1564547547 -1610424112
            1291853217 -1031632389 1227901112</internalNodes>
          <leafValues>
            -7.3722118139266968e-01 4.5378395915031433e-01</leafValues></_></weakClassifiers></_>
    <!-- stage 10 -->
    <_>
      <maxWeakCount>7</maxWeakCount>
      <stageThreshold>-7.8794384002685547e-01</stageThreshold>
      <weakClassifiers>
        <_>
          <internalNodes>
            0 -1 94 1599045447 1610088398 -17826050 1078918764 -75540721
            -145 2139060087 -570558593</internalNodes>
          <leafValues>
            -5.5555558204650879e-01 6.0817086696624756e-01</leafValues></_>
        <_>
          <internalNodes>
            0 -1 21 -918165589 1711933440 268468725 -841355119
            2075197834 31695109 100769922 -611638289</internalNodes>
          <leafValues>
            -6.6026735305786133e-01 4.7976702451705933e-01</leafValues></_>
        <_>
          <internalNodes>
            0 -1 113 -119912216 -611516087 1048782 1918522115 -515334066
            1916928009 -652172566 -1291138657</internalNodes>
          <leafValues>
            -5.6938475370407104e-01 5.1567274332046509e-01</leafValues></_>
        <_>
          <internalNodes>
            0 -1 90 -1744826021 -526843888 268501169 -552959851
            -2046652279 -1702854528 -763098173 -239662386</internalNodes>
          <leafValues>
            -4.9427288770675659e-01 6.6660749912261963e-01</leafValues></_>
        <_>
          <internalNodes>
            0 -1 114 -742178597 -729069560 1078542528 1611612681
            1225396810 -2147483359 444629154 -215254357</internalNodes>
          <leafValues>
            -6.0441946983337402e-01 5.4853802919387817e-01</leafValues></_>
        <_>
          <internalNodes>
            0 -1 22 -1719793175 -166413135 68700475 -710857423 142703021
            -2011922295 1364271745 -1651365880</internalNodes>
          <leafValues>
            -6.8130975961685181e-01 4.8605656623840332e-01</leafValues></_>
        <_>
          <internalNodes>
            0 -1 84 -233500277 -712998653 -1879048041 -721419342
            -939392369 -1731723007 -670563581 -1938747383</internalNodes>
          <leafValues>
            -6.0830438137054443e-01 5.5217409133911133e-01</leafValues></_></weakClassifiers></_>
    <!-- stage 11 -->
    <_>
      <maxWeakCount>6</maxWeakCount>
      <stageThreshold>-1.3140983581542969e+00</stageThreshold>
      <weakClassifiers>
        <_>
          <internalNodes>
            0 -1 101 1407075471 1363886350 287314119 1554268186
            1883696650 -500969464 1377182242 1933799602</internalNodes>
          <leafValues>
            -5.8394157886505127e-01 5.6537103652954102e-01</leafValues></_>
        <_>
          <internalNodes>
            0 -1 72 1998581061 -41840371 302452894 -2004864125
            -247739575 -74837775 -293534993 -354358941</internalNodes>
          <leafValues>
            -6.1842548847198486e-01 5.2598291635513306e-01</leafValues></_>
        <_>
          <internalNodes>
            0 -1 59 -1039673397 1938948099 343986403 -204533170
            -1040061239 -1197243771 1073784583 -956149825</internalNodes>
          <leafValues>
            -6.0267829895019531e-01 5.1513087749481201e-01</leafValues></_>
        <_>
          <internalNodes>
            0 -1 71 -682295363 -535260116 -1861876643 1459683336
            34363473 -1171783550 -402552693 1049504703</internalNodes>
          <leafValues>
            -5.8939248323440552e-01 5.6332564353942871e-01</leafValues></_>
        <_>
          <internalNodes>
            0 -1 15 863687083 -1645367573 7338943 1575170031 -462097084
            -23167154 -269585058 -70161</internalNodes>
          <leafValues>
            -5.2894431352615356e-01 6.0488337278366089e-01</leafValues></_>
        <_>
          <internalNodes>
            0 -1 87 -648369498 -1861150899 1170277207 1565594113
            1116711299 -518749935 -1085166806 -1733564781</internalNodes>
          <leafValues>
            -6.8788534402847290e-01 4.9147465825080872e-01</leafValues></_></weakClassifiers></_>
    <!-- stage 12 -->
    <_>
      <maxWeakCount>7</maxWeakCount>
      <stageThreshold>-1.1285544633865356e+00</stageThreshold>
      <weakClassifiers>
        <_>
          <internalNodes>
            0 -1 11 -1346373889 -1882194706 -268435753 -823134211
            -1879113737 -1901136641 -2024802395 -842015395</internalNodes>
          <leafValues>
            -4.3203228712081909e-01 6.8409818410873413e-01</leafValues></_>
        <_>
          <internalNodes>
            0 -1 110 -193903877 -673641125 1074208963 1380933071
            -1676674901 1476921352 1363736451 1463810795</internalNodes>
          <leafValues>
            -6.4226162433624268e-01 5.2765130996704102e-01</leafValues></_>
        <_>
          <internalNodes>
            0 -1 80 2981892 -287784947 -1726655597 -1034656442
            1509949840 -451902928 -2147385149 -27225112</internalNodes>
          <leafValues>
            -7.4012881517410278e-01 3.9943546056747437e-01</leafValues></_>
        <_>
          <internalNodes>
            0 -1 85 -167721847 1229247553 -2127432927 281133447
            -1056857975 -1710649286 -805125269 -1432072659</internalNodes>
          <leafValues>
            -6.7196840047836304e-01 4.8682010173797607e-01</leafValues></_>
        <_>
          <internalNodes>
            0 -1 67 -653888036 -40894108 323375615 1570636189
            -1810888264 -1180138864 160074218 -1423041032</internalNodes>
          <leafValues>
            -6.1597967147827148e-01 5.0690376758575439e-01</leafValues></_>
        <_>
          <internalNodes>
            0 -1 27 268652735 1802309867 -243031901 -2049879861
            -2109505065 -820436840 254003351 -2014733733</internalNodes>
          <leafValues>
            -6.5819031000137329e-01 4.9298816919326782e-01</leafValues></_>
        <_>
          <internalNodes>
            0 -1 75 2034323598 18929672 403702110 1427439685 289919372
            72201 151292652 1734319577</internalNodes>
          <leafValues>
            -8.0084377527236938e-01 4.3211045861244202e-01</leafValues></_></weakClassifiers></_>
    <!-- stage 13 -->
    <_>
      <maxWeakCount>7</maxWeakCount>
      <stageThreshold>-6.6006839275360107e-01</stageThreshold>
      <weakClassifiers>
        <_>
          <internalNodes>
            0 -1 76 50377466 -141262322 1359020159 -964159161 1075302578
            -330579436 -1140703113 -145432378</internalNodes>
          <leafValues>
            -5.8333331346511841e-01 5.4513889551162720e-01</leafValues></_>
        <_>
          <internalNodes>
            0 -1 69 -1351127045 -32769 -17350849 -17956866 -277562754
            -805306505 -940443841 -185641474</internalNodes>
          <leafValues>
            -4.4730839133262634e-01 6.4988148212432861e-01</leafValues></_>
        <_>
          <internalNodes>
            0 -1 95 366716135 -1958702938 1506300223 -16449403
            -422727157 672664266 -511117773 -1367805248</internalNodes>
          <leafValues>
            -5.7469379901885986e-01 5.1176142692565918e-01</leafValues></_>
        <_>
          <internalNodes>
            0 -1 9 -545095430 -172408331 -1455387187 -452683046
            -1924643814 -1013841256 -1348363353 1688862803</internalNodes>
          <leafValues>
            -7.5946789979934692e-01 3.9047092199325562e-01</leafValues></_>
        <_>
          <internalNodes>
            0 -1 82 208857512 -380612463 1090617727 1399325341
            -1442768760 -133918716 151022251 -888469063</internalNodes>
          <leafValues>
            -5.7234334945678711e-01 5.1334869861602783e-01</leafValues></_>
        <_>
          <internalNodes>
            0 -1 10 -1857509905 -1223487311 -1932825137 98799789
            -905658293 -1876819776 -370562418 -575008289</internalNodes>
          <leafValues>
            -5.1607143878936768e-01 5.9576517343521118e-01</leafValues></_>
        <_>
          <internalNodes>
            0 -1 117 -201674885 -335851681 -25266443 2055016438
            -1889534198 -10485910 -682164237 2047606655</internalNodes>
          <leafValues>
            -5.0233191251754761e-01 6.4704954624176025e-01</leafValues></_></weakClassifiers></_>
    <!-- stage 14 -->
    <_>
      <maxWeakCount>7</maxWeakCount>
      <stageThreshold>-9.4518554210662842e-01</stageThreshold>
      <weakClassifiers>
        <_>
          <internalNodes>
            0 -1 55 -746350609 -1785919211 1779332559 1183847322
            420055694 1535674537 2125148995 934164616</internalNodes>
          <leafValues>
            -6.6160517930984497e-01 5.1271533966064453e-01</leafValues></_>
        <_>
          <internalNodes>
            0 -1 103 -154022869 -1046615661 -1970519337 -199867806
            -234499839 -1610317822 -1434062733 -20473398</internalNodes>
          <leafValues>
            -6.1362570524215698e-01 4.8092859983444214e-01</leafValues></_>
        <_>
          <internalNodes>
            0 -1 1 -280747846 -213542507 155383671 -72167278 153813017
            -360412968 -924063033 1949921329</internalNodes>
          <leafValues>
            -7.0036566257476807e-01 3.9640679955482483e-01</leafValues></_>
        <_>
          <internalNodes>
            0 -1 20 -1342510413 -940901650 -1409288497 1324216204
            -272695373 -301990145 113240041 -536961537</internalNodes>
          <leafValues>
            -4.9227657914161682e-01 6.0008025169372559e-01</leafValues></_>
        <_>
          <internalNodes>
            0 -1 40 -778667954 -790255349 1132517629 2036417952
            -490533887 1001087247 1099506696 1338231487</internalNodes>
          <leafValues>
            -6.5781247615814209e-01 4.6063062548637390e-01</leafValues></_>
        <_>
          <internalNodes>
            0 -1 107 -232336361 -382049941 268599390 -792201833
            -374679000 -484523990 -1039618780 -16744001</internalNodes>
          <leafValues>
            -6.0413938760757446e-01 5.0714468955993652e-01</leafValues></_>
        <_>
          <internalNodes>
            0 -1 43 -1176134 2120855546 2063495148 1606381310 359974140
            -596607387 -536992033 -1140714116</internalNodes>
          <leafValues>
            -5.2513039112091064e-01 6.0162413120269775e-01</leafValues></_></weakClassifiers></_>
    <!-- stage 15 -->
    <_>
      <maxWeakCount>6</maxWeakCount>
      <stageThreshold>-5.3166294097900391e-01</stageThreshold>
      <weakClassifiers>
        <_>
          <internalNodes>
            0 -1 38 -1970606934 -1886392184 268452161 1380905795
            -1325162357 1129105961 27169255 1406847368</internalNodes>
          <leafValues>
            -7.8534030914306641e-01 4.7765794396400452e-01</leafValues></_>
        <_>
          <internalNodes>
            0 -1 109 -628378957 -703528359 -1719564857 1343695185
            -1337688005 -133652447 -1329545569 -147160615</internalNodes>
          <leafValues>
            -5.0416862964630127e-01 5.6872469186782837e-01</leafValues></_>
        <_>
          <internalNodes>
            0 -1 6 -1455751205 24412172 -1207770733 -867712151
            -2108771930 1216348579 1469022352 -938215287</internalNodes>
          <leafValues>
            -6.0847157239913940e-01 4.9882671236991882e-01</leafValues></_>
        <_>
          <internalNodes>
            0 -1 77 -1059831485 334643663 1913758043 1361088898
            -2133570694 -1566359383 -1542133505 -915907829</internalNodes>
          <leafValues>
            -6.6975802183151245e-01 4.4120672345161438e-01</leafValues></_>
        <_>
          <internalNodes>
            0 -1 89 -1592904393 -728464637 -1878798061 -673412985
            -2147380830 -1694358823 823361577 -579900753</internalNodes>
          <leafValues>
            -5.2899509668350220e-01 5.8492475748062134e-01</leafValues></_>
        <_>
          <internalNodes>
            0 -1 26 -1039406463 -2021637247 1359020359 -868941603
            -1978660657 735314136 -1901017022 -539522743</internalNodes>
          <leafValues>
            -7.2608566284179688e-01 4.2248436808586121e-01</leafValues></_></weakClassifiers></_>
    <!-- stage 16 -->
    <_>
      <maxWeakCount>7</maxWeakCount>
      <stageThreshold>-1.2213541269302368e+00</stageThreshold>
      <weakClassifiers>
        <_>
          <internalNodes>
            0 -1 106 -285408243 -179857 -285249555 1669300223 -397480436
            -8456159 -419502418 -359923746</internalNodes>
          <leafValues>
            -4.8055988550186157e-01 6.0655736923217773e-01</leafValues></_>
        <_>
          <internalNodes>
            0 -1 74 -2049705301 1343261457 486920452 -44821614
            -1944611696 -1957593084 -16401748 1941187107</internalNodes>
          <leafValues>
            -8.0064147710800171e-01 3.9648565649986267e-01</leafValues></_>
        <_>
          <internalNodes>
            0 -1 32 -133239893 -1683700858 -471744235 -742030757
            81136619 -2117040007 -1341810653 -1699774971</internalNodes>
          <leafValues>
            -6.7221170663833618e-01 4.1735544800758362e-01</leafValues></_>
        <_>
          <internalNodes>
            0 -1 116 -105690915 -805033879 -1073659830 1612845058
            -1048342008 1388314632 -1232352333 1930125709</internalNodes>
          <leafValues>
            -6.7113590240478516e-01 4.2650678753852844e-01</leafValues></_>
        <_>
          <internalNodes>
            0 -1 0 286506415 -237768259 -1341091523 -246213209
            1080082629 -214687733 -1718712117 1963065353</internalNodes>
          <leafValues>
            -7.0944714546203613e-01 3.9706557989120483e-01</leafValues></_>
        <_>
          <internalNodes>
            0 -1 29 1141950447 1897924494 -1424965608 1500080650
            277009288 1376788610 986273244 2064222618</internalNodes>
          <leafValues>
            -5.9948647022247314e-01 4.8070356249809265e-01</leafValues></_>
        <_>
          <internalNodes>
            0 -1 92 -2116606915 -37088986 -1870478631 -278888120
            1342746850 -1450647536 -1425225552 -1760328822</internalNodes>
          <leafValues>
            -5.8159410953521729e-01 5.0038784742355347e-01</leafValues></_></weakClassifiers></_>
    <!-- stage 17 -->
    <_>
      <maxWeakCount>6</maxWeakCount>
      <stageThreshold>-7.2733360528945923e-01</stageThreshold>
      <weakClassifiers>
        <_>
          <internalNodes>
            0 -1 41 -1215773981 -271614880 -1207965712 1506891237
            -1744600789 16810762 365417475 335271421</internalNodes>
          <leafValues>
            -5.3064799308776855e-01 5.6176733970642090e-01</leafValues></_>
        <_>
          <internalNodes>
            0 -1 16 285663499 1527712030 563059419 220368803 -973021120
            -666363904 -452398776 1874454970</internalNodes>
          <leafValues>
            -6.9127959012985229e-01 4.0451291203498840e-01</leafValues></_>
        <_>
          <internalNodes>
            0 -1 104 -73476901 -8429729 1996160991 1933147895 -4530678
            -142606473 -214253941 1866137595</internalNodes>
          <leafValues>
            -4.7255635261535645e-01 5.9075981378555298e-01</leafValues></_>
        <_>
          <internalNodes>
            0 -1 57 -796204642 -46497787 1225785434 -736149440
            -2103245393 258482699 -502823896 419955213</internalNodes>
          <leafValues>
            -8.1850278377532959e-01 3.8196501135826111e-01</leafValues></_>
        <_>
          <internalNodes>
            0 -1 78 -935154809 -1072625404 1107528974 -112131840
            -230612562 -37478188 -1554443602 1603269511</internalNodes>
          <leafValues>
            -6.3406109809875488e-01 3.9078184962272644e-01</leafValues></_>
        <_>
          <internalNodes>
            0 -1 14 1076022699 611008743 286806225 -456015599 1758660763
            98377749 -1304346573 -2025218023</internalNodes>
          <leafValues>
            -7.9333657026290894e-01 3.3224904537200928e-01</leafValues></_></weakClassifiers></_>
    <!-- stage 18 -->
    <_>
      <maxWeakCount>6</maxWeakCount>
      <stageThreshold>-6.3694113492965698e-01</stageThreshold>
      <weakClassifiers>
        <_>
          <internalNodes>
            0 -1 98 1394569792 1964722176 -2073960162 1145995922
            -1290897893 -1374648310 1644229553 -237043</internalNodes>
          <leafValues>
            -5.8787876367568970e-01 5.1561182737350464e-01</leafValues></_>
        <_>
          <internalNodes>
            0 -1 102 -1040037681 -170909541 1082295050 1511587923
            -1333719040 -519962616 -1031742838 -636748881</internalNodes>
          <leafValues>
            -5.4390293359756470e-01 5.2711492776870728e-01</leafValues></_>
        <_>
          <internalNodes>
            0 -1 62 2073035454 -1061877048 167915693 -737979910
            -1123819317 -1970691893 -114464280 1610566851</internalNodes>
          <leafValues>
            -6.5190219879150391e-01 4.2133969068527222e-01</leafValues></_>
        <_>
          <internalNodes>
            0 -1 51 -219723740 -247446214 -2143141560 -73318340
            -750256120 721421569 -1189994360 -111777</internalNodes>
          <leafValues>
            -5.7744604349136353e-01 4.7978091239929199e-01</leafValues></_>
        <_>
          <internalNodes>
            0 -1 93 -1784934284 -245882796 -1862234469 -16055548
            -1591034916 -131170176 -1576631922 967447592</internalNodes>
          <leafValues>
            -6.3245135545730591e-01 4.2707055807113647e-01</leafValues></_>
        <_>
          <internalNodes>
            0 -1 91 -851066816 -850804720 1779681706 -997630561
            -1811889926 1560379408 -1316425568 666736585</internalNodes>
          <leafValues>
            -8.3112645149230957e-01 2.9809597134590149e-01</leafValues></_></weakClassifiers></_>
    <!-- stage 19 -->
    <_>
      <maxWeakCount>8</maxWeakCount>
      <stageThreshold>-1.1096224784851074e+00</stageThreshold>
      <weakClassifiers>
        <_>
          <internalNodes>
            0 -1 118 -41197 -192970881 -83886338 1887399919 -16819124
            -8421506 -692586501 -214173731</internalNodes>
          <leafValues>
            -3.4961438179016113e-01 6.5631932020187378e-01</leafValues></_>
        <_>
          <internalNodes>
            0 -1 58 -780128561 1363738783 -1777854477 -804699182
            1614827476 -259419511 1369619139 -2051618645</internalNodes>
          <leafValues>
            -4.9680349230766296e-01 5.1866340637207031e-01</leafValues></_>
        <_>
          <internalNodes>
            0 -1 52 -1270851344 -602253228 -752352741 427885400
            -1708074568 -1732769327 974166202 1529382980</internalNodes>
          <leafValues>
            -5.9911763668060303e-01 4.3983760476112366e-01</leafValues></_>
        <_>
          <internalNodes>
            0 -1 34 -973671443 -268501205 -2053 -808539349 -805440771
            -1932005393 1174402042 -813149280</internalNodes>
          <leafValues>
            -4.5765829086303711e-01 5.7389420270919800e-01</leafValues></_>
        <_>
          <internalNodes>
            0 -1 2 1843650815 -4194305 154103551 499625854 -8436555
            -732497986 -9554649 -813795900</internalNodes>
          <leafValues>
            -4.9788564443588257e-01 6.1569094657897949e-01</leafValues></_>
        <_>
          <internalNodes>
            0 -1 86 -1860566595 -805289831 335560977 1895911619
            -2062966550 -2139062270 -1610585125 1057688268</internalNodes>
          <leafValues>
            -6.8071258068084717e-01 4.3550750613212585e-01</leafValues></_>
        <_>
          <internalNodes>
            0 -1 50 1369043401 -1539137148 276890320 1997078667
            -905371637 10125440 25174658 -203429303</internalNodes>
          <leafValues>
            -5.9751951694488525e-01 4.9282091856002808e-01</leafValues></_>
        <_>
          <internalNodes>
            0 -1 37 1413773106 1439359616 -1937694700 1136627948
            327185314 1217036753 -1474248034 1461355099</internalNodes>
          <leafValues>
            -6.6459316015243530e-01 4.4753527641296387e-01</leafValues></_></weakClassifiers></_></stages>
  <features>
    <_>
      <rect>
        1 0 12 8</rect></_>
    <_>
      <rect>
        1 10 10 7</rect></_>
    <_>
      <rect>
        3 14 9 6</rect></_>
    <_>
      <rect>
        3 16 8 5</rect></_>
    <_>
      <rect>
        4 2 12 8</rect></_>
    <_>
      <rect>
        4 9 10 5</rect></_>
    <_>
      <rect>
        4 16 3 4</rect></_>
    <_>
      <rect>
        4 19 6 4</rect></_>
    <_>
      <rect>
        5 11 10 5</rect></_>
    <_>
      <rect>
        5 12 8 5</rect></_>
    <_>
      <rect>
        5 12 8 7</rect></_>
    <_>
      <rect>
        5 14 3 4</rect></_>
    <_>
      <rect>
        5 14 10 6</rect></_>
    <_>
      <rect>
        5 15 5 4</rect></_>
    <_>
      <rect>
        6 14 5 3</rect></_>
    <_>
      <rect>
        6 14 7 6</rect></_>
    <_>
      <rect>
        6 15 7 5</rect></_>
    <_>
      <rect>
        6 21 7 5</rect></_>
    <_>
      <rect>
        7 4 6 8</rect></_>
    <_>
      <rect>
        7 15 2 3</rect></_>
    <_>
      <rect>
        7 17 2 4</rect></_>
    <_>
      <rect>
        7 17 4 3</rect></_>
    <_>
      <rect>
        8 0 8 8</rect></_>
    <_>
      <rect>
        8 1 8 8</rect></_>
    <_>
      <rect>
        8 10 5 5</rect></_>
    <_>
      <rect>
        8 10 8 4</rect></_>
    <_>
      <rect>
        8 11 5 4</rect></_>
    <_>
      <rect>
        8 13 4 3</rect></_>
    <_>
      <rect>
        8 14 2 3</rect></_>
    <_>
      <rect>
        8 19 5 4</rect></_>
    <_>
      <rect>
        9 5 5 7</rect></_>
    <_>
      <rect>
        10 4 4 8</rect></_>
    <_>
      <rect>
        10 7 4 6</rect></_>
    <_>
      <rect>
        10 15 3 3</rect></_>
    <_>
      <rect>
        11 0 7 9</rect></_>
    <_>
      <rect>
        11 13 3 3</rect></_>
    <_>
      <rect>
        11 13 6 4</rect></_>
    <_>
      <rect>
        11 15 3 4</rect></_>
    <_>
      <rect>
        11 16 2 2</rect></_>
    <_>
      <rect>
        11 16 3 4</rect></_>
    <_>
      <rect>
        11 16 5 6</rect></_>
    <_>
      <rect>
        11 17 1 2</rect></_>
    <_>
      <rect>
        11 17 4 4</rect></_>
    <_>
      <rect>
        11 29 4 2</rect></_>
    <_>
      <rect>
        12 11 4 6</rect></_>
    <_>
      <rect>
        12 15 1 1</rect></_>
    <_>
      <rect>
        12 15 2 2</rect></_>
    <_>
      <rect>
        12 16 6 4</rect></_>
    <_>
      <rect>
        12 18 1 1</rect></_>
    <_>
      <rect>
        12 18 5 2</rect></_>
    <_>
      <rect>
        12 21 1 1</rect></_>
    <_>
      <rect>
        12 25 2 3</rect></_>
    <_>
      <rect>
        12 28 5 3</rect></_>
    <_>
      <rect>
        13 14 5 2</rect></_>
    <_>
      <rect>
        13 16 3 2</rect></_>
    <_>
      <rect>
        13 17 4 2</rect></_>
    <_>
      <rect>
        13 17 5 4</rect></_>
    <_>
      <rect>
        13 17 5 6</rect></_>
    <_>
      <rect>
        13 18 3 2</rect></_>
    <_>
      <rect>
        13 18 3 3</rect></_>
    <_>
      <rect>
        13 19 4 5</rect></_>
    <_>
      <rect>
        14 10 6 6</rect></_>
    <_>
      <rect>
        14 13 3 4</rect></_>
    <_>
      <rect>
        14 15 6 5</rect></_>
    <_>
      <rect>
        14 16 1 1</rect></_>
    <_>
      <rect>
        14 17 4 2</rect></_>
    <_>
      <rect>
        14 19 1 1</rect></_>
    <_>
      <rect>
        14 28 4 3</rect></_>
    <_>
      <rect>
        15 11 5 6</rect></_>
    <_>
      <rect>
        15 18 2 3</rect></_>
    <_>
      <rect>
        15 19 2 2</rect></_>
    <_>
      <rect>
        15 21 3 4</rect></_>
    <_>
      <rect>
        16 9 7 7</rect></_>
    <_>
      <rect>
        16 13 8 4</rect></_>
    <_>
      <rect>
        16 16 3 4</rect></_>
    <_>
      <rect>
        16 17 6 3</rect></_>
    <_>
      <rect>
        16 19 2 2</rect></_>
    <_>
      <rect>
        17 4 5 7</rect></_>
    <_>
      <rect>
        17 14 4 5</rect></_>
    <_>
      <rect>
        17 16 4 4</rect></_>
    <_>
      <rect>
        17 20 2 1</rect></_>
    <_>
      <rect>
        18 9 6 5</rect></_>
    <_>
      <rect>
        18 10 2 2</rect></_>
    <_>
      <rect>
        18 16 4 4</rect></_>
    <_>
      <rect>
        18 18 1 1</rect></_>
    <_>
      <rect>
        19 6 4 8</rect></_>
    <_>
      <rect>
        19 10 1 2</rect></_>
    <_>
      <rect>
        19 13 3 4</rect></_>
    <_>
      <rect>
        19 15 3 2</rect></_>
    <_>
      <rect>
        19 18 1 2</rect></_>
    <_>
      <rect>
        19 19 1 1</rect></_>
    <_>
      <rect>
        19 19 3 3</rect></_>
    <_>
      <rect>
        19 20 1 1</rect></_>
    <_>
      <rect>
        19 31 2 2</rect></_>
    <_>
      <rect>
        20 14 6 5</rect></_>
    <_>
      <rect>
        20 15 4 3</rect></_>
    <_>
      <rect>
        21 11 5 4</rect></_>
    <_>
      <rect>
        21 14 2 2</rect></_>
    <_>
      <rect>
        21 14 6 6</rect></_>
    <_>
      <rect>
        21 15 2 3</rect></_>
    <_>
      <rect>
        22 8 5 7</rect></_>
    <_>
      <rect>
        22 14 2 3</rect></_>
    <_>
      <rect>
        22 15 1 1</rect></_>
    <_>
      <rect>
        22 18 2 2</rect></_>
    <_>
      <rect>
        23 12 1 2</rect></_>
    <_>
      <rect>
        23 15 2 2</rect></_>
    <_>
      <rect>
        23 16 1 2</rect></_>
    <_>
      <rect>
        24 12 5 6</rect></_>
    <_>
      <rect>
        24 13 4 4</rect></_>
    <_>
      <rect>
        24 14 3 2</rect></_>
    <_>
      <rect>
        24 16 2 2</rect></_>
    <_>
      <rect>
        24 17 1 2</rect></_>
    <_>
      <rect>
        24 17 2 4</rect></_>
    <_>
      <rect>
        25 15 1 1</rect></_>
    <_>
      <rect>
        25 16 1 2</rect></_>
    <_>
      <rect>
        25 17 2 2</rect></_>
    <_>
      <rect>
        26 16 1 2</rect></_>
    <_>
      <rect>
        26 16 3 4</rect></_>
    <_>
      <rect>
        27 19 1 1</rect></_></features></cascade>
</opencv_storage>
