<?xml version="1.0"?>
<opencv_storage>
<cascade>
  <stageType>BOOST</stageType>
  <featureType>LBP</featureType>
  <height>40</height>
  <width>40</width>
  <stageParams>
    <boostType>GAB</boostType>
    <minHitRate>9.9900001287460327e-01</minHitRate>
    <maxFalseAlarm>5.0000000000000000e-01</maxFalseAlarm>
    <weightTrimRate>9.4999999999999996e-01</weightTrimRate>
    <maxDepth>1</maxDepth>
    <maxWeakCount>100</maxWeakCount></stageParams>
  <featureParams>
    <maxCatCount>256</maxCatCount>
    <featSize>1</featSize></featureParams>
  <stageNum>20</stageNum>
  <stages>
    <!-- stage 0 -->
    <_>
      <maxWeakCount>3</maxWeakCount>
      <stageThreshold>-9.8151123523712158e-01</stageThreshold>
      <weakClassifiers>
        <_>
          <internalNodes>
            0 -1 23 -153956118 -778928030 289493026 -117374976
            -767458930 -253722614 -517412386 -5512789</internalNodes>
          <leafValues>
            -8.7430685758590698e-01 8.2436263561248779e-01</leafValues></_>
        <_>
          <internalNodes>
            0 -1 6 -774778697 -117075945 98723 1932747539 -1069233473
            -1568570877 1409319275 1464328487</internalNodes>
          <leafValues>
            -8.7215101718902588e-01 7.3266661167144775e-01</leafValues></_>
        <_>
          <internalNodes>
            0 -1 29 1879957742 -578781174 274178075 -233630647
            1342406798 339902665 -993359441 -974128149</internalNodes>
          <leafValues>
            -8.0887371301651001e-01 7.6494663953781128e-01</leafValues></_></weakClassifiers></_>
    <!-- stage 1 -->
    <_>
      <maxWeakCount>3</maxWeakCount>
      <stageThreshold>-9.0108299255371094e-01</stageThreshold>
      <weakClassifiers>
        <_>
          <internalNodes>
            0 -1 85 -654312453 -973606913 821981115 5898111 -67110225
            -1056980993 814743471 15728639</internalNodes>
          <leafValues>
            -7.8321677446365356e-01 8.2490271329879761e-01</leafValues></_>
        <_>
          <internalNodes>
            0 -1 2 -215221765 -1014558333 51200 1388812315 1712423059
            -912029407 1124302849 1464331259</internalNodes>
          <leafValues>
            -8.7032359838485718e-01 7.0376563072204590e-01</leafValues></_>
        <_>
          <internalNodes>
            0 -1 84 -1853692758 805574672 1392513216 -679014128
            -1736267062 -1719107576 -1459616837 -68443462</internalNodes>
          <leafValues>
            -7.8273111581802368e-01 7.5245738029479980e-01</leafValues></_></weakClassifiers></_>
    <!-- stage 2 -->
    <_>
      <maxWeakCount>4</maxWeakCount>
      <stageThreshold>-2.1817088127136230e-01</stageThreshold>
      <weakClassifiers>
        <_>
          <internalNodes>
            0 -1 9 -179570437 -744419005 536973379 1370345859 1879242715
            1426235528 1342448559 2003297022</internalNodes>
          <leafValues>
            -8.3397680521011353e-01 7.6894640922546387e-01</leafValues></_>
        <_>
          <internalNodes>
            0 -1 62 -41957121 1128726977 78172599 -601505073 1090617547
            16892099 -2079087145 -733614705</internalNodes>
          <leafValues>
            -7.6897346973419189e-01 7.5464987754821777e-01</leafValues></_>
        <_>
          <internalNodes>
            0 -1 24 -549261074 -149847986 1392603776 -645541878
            -1878740503 -1640855520 -1366187557 -6837537</internalNodes>
          <leafValues>
            -8.3423429727554321e-01 6.9274514913558960e-01</leafValues></_>
        <_>
          <internalNodes>
            0 -1 26 -799936265 -107409407 1073901953 -712966135
            -2004618501 -467647998 537048955 67669707</internalNodes>
          <leafValues>
            -8.2854568958282471e-01 6.9539034366607666e-01</leafValues></_></weakClassifiers></_>
    <!-- stage 3 -->
    <_>
      <maxWeakCount>4</maxWeakCount>
      <stageThreshold>-1.4953950047492981e-01</stageThreshold>
      <weakClassifiers>
        <_>
          <internalNodes>
            0 -1 15 -67636225 -32769 216797296 -536906753 -134745345 -1
            9970686 1565859295</internalNodes>
          <leafValues>
            -6.6386556625366211e-01 7.9104477167129517e-01</leafValues></_>
        <_>
          <internalNodes>
            0 -1 87 -136843525 152331075 1343031553 222462018 -742143217
            134402062 -1958627185 432009423</internalNodes>
          <leafValues>
            -7.5130712985992432e-01 6.8711709976196289e-01</leafValues></_>
        <_>
          <internalNodes>
            0 -1 21 -1848001701 -619605689 -2122247329 -1693380281
            -1033797237 -366935925 251785951 1090848093</internalNodes>
          <leafValues>
            -8.5672348737716675e-01 6.1901915073394775e-01</leafValues></_>
        <_>
          <internalNodes>
            0 -1 72 1970800363 385975321 25264387 -683999102 75516427
            -654278586 805363882 -842383222</internalNodes>
          <leafValues>
            -7.7097791433334351e-01 6.9323182106018066e-01</leafValues></_></weakClassifiers></_>
    <!-- stage 4 -->
    <_>
      <maxWeakCount>4</maxWeakCount>
      <stageThreshold>-1.4987610578536987e+00</stageThreshold>
      <weakClassifiers>
        <_>
          <internalNodes>
            0 -1 30 -556866834 -808488954 -1656647338 -899821008
            -975535890 -532512690 -226377253 -891294753</internalNodes>
          <leafValues>
            -7.7955913543701172e-01 7.1662127971649170e-01</leafValues></_>
        <_>
          <internalNodes>
            0 -1 66 1973606614 -478080625 1430311473 -1141440301
            553699707 -1014494824 -165443185 -996192105</internalNodes>
          <leafValues>
            -7.2720152139663696e-01 6.9041246175765991e-01</leafValues></_>
        <_>
          <internalNodes>
            0 -1 12 -74458401 -1054932845 -1593736954 1494155266
            1914568739 1174470692 -1020962290 2065373213</internalNodes>
          <leafValues>
            -8.0103319883346558e-01 6.1333143711090088e-01</leafValues></_>
        <_>
          <internalNodes>
            0 -1 48 1364317527 458244098 -2130706408 -889157425
            422413066 -490528639 -508563287 -67656754</internalNodes>
          <leafValues>
            -6.8714755773544312e-01 7.3633450269699097e-01</leafValues></_></weakClassifiers></_>
    <!-- stage 5 -->
    <_>
      <maxWeakCount>4</maxWeakCount>
      <stageThreshold>-4.4901710748672485e-01</stageThreshold>
      <weakClassifiers>
        <_>
          <internalNodes>
            0 -1 55 -616114945 1092420821 335614159 1493499931 285212863
            1251707046 1377927439 1290491</internalNodes>
          <leafValues>
            -8.3148556947708130e-01 6.7449957132339478e-01</leafValues></_>
        <_>
          <internalNodes>
            0 -1 0 -1814040557 -816217773 537919503 1057706771 2749615
            -259874647 1092829643 2007987127</internalNodes>
          <leafValues>
            -8.1448823213577271e-01 6.0096186399459839e-01</leafValues></_>
        <_>
          <internalNodes>
            0 -1 53 -1660255009 1431519591 -2129045027 320311661
            -631590477 -1167579006 -754351962 1541921770</internalNodes>
          <leafValues>
            -7.9150581359863281e-01 6.5460062026977539e-01</leafValues></_>
        <_>
          <internalNodes>
            0 -1 76 -804761392 -1068236672 -1342177214 -96337536
            -1207946558 -1744830336 -536338422 -159249910</internalNodes>
          <leafValues>
            -8.3402395248413086e-01 5.7301247119903564e-01</leafValues></_></weakClassifiers></_>
    <!-- stage 6 -->
    <_>
      <maxWeakCount>5</maxWeakCount>
      <stageThreshold>-8.9373123645782471e-01</stageThreshold>
      <weakClassifiers>
        <_>
          <internalNodes>
            0 -1 54 -1224558703 -542375536 2136909592 -540057603
            -1216448689 -161 1218404098 -554762258</internalNodes>
          <leafValues>
            -6.7028987407684326e-01 7.3473280668258667e-01</leafValues></_>
        <_>
          <internalNodes>
            0 -1 67 -172231221 -1189752549 352911518 -846786081
            -1680883051 1275381779 -1111768628 -559499841</internalNodes>
          <leafValues>
            -6.5086358785629272e-01 7.1217554807662964e-01</leafValues></_>
        <_>
          <internalNodes>
            0 -1 82 -37498428 1104740352 134217881 2131316737
            -1735744891 1352663168 -779898214 -80494590</internalNodes>
          <leafValues>
            -6.3950175046920776e-01 7.3579549789428711e-01</leafValues></_>
        <_>
          <internalNodes>
            0 -1 78 1409543903 -348026741 196626 -389819765 41982139
            -1339973501 1084214255 16514043</internalNodes>
          <leafValues>
            -7.8756988048553467e-01 6.1757117509841919e-01</leafValues></_>
        <_>
          <internalNodes>
            0 -1 59 -83050484 -212238130 151061770 -250003065 272683263
            -627494773 -1182023457 -79373386</internalNodes>
          <leafValues>
            -8.8384252786636353e-01 5.4946422576904297e-01</leafValues></_></weakClassifiers></_>
    <!-- stage 7 -->
    <_>
      <maxWeakCount>5</maxWeakCount>
      <stageThreshold>-9.7223114967346191e-01</stageThreshold>
      <weakClassifiers>
        <_>
          <internalNodes>
            0 -1 18 -145237621 -78282749 -1006136319 2004977985
            -2146319671 -249493110 218186010 588509443</internalNodes>
          <leafValues>
            -7.9157429933547974e-01 6.5883374214172363e-01</leafValues></_>
        <_>
          <internalNodes>
            0 -1 42 1565648859 1498481666 302764420 -455032704 271061503
            -24704888 -1064643686 -4456705</internalNodes>
          <leafValues>
            -6.6834664344787598e-01 6.5370947122573853e-01</leafValues></_>
        <_>
          <internalNodes>
            0 -1 83 -1073742082 -838901889 1560174062 -721420417
            -1610613506 -2021696129 1449156062 -304038</internalNodes>
          <leafValues>
            -6.4728695154190063e-01 6.7456567287445068e-01</leafValues></_>
        <_>
          <internalNodes>
            0 -1 71 -1258040229 -783855485 822281344 -785718651
            -770404166 570425346 35323 775030431</internalNodes>
          <leafValues>
            -6.6176503896713257e-01 6.8144994974136353e-01</leafValues></_>
        <_>
          <internalNodes>
            0 -1 77 1757947144 117489666 1343848448 -1713827757
            1673716471 -1130724670 2030197135 -1078512949</internalNodes>
          <leafValues>
            -8.6852926015853882e-01 4.8816785216331482e-01</leafValues></_></weakClassifiers></_>
    <!-- stage 8 -->
    <_>
      <maxWeakCount>5</maxWeakCount>
      <stageThreshold>-9.2008417844772339e-01</stageThreshold>
      <weakClassifiers>
        <_>
          <internalNodes>
            0 -1 10 -573573633 -61353 1961099259 -142606337 1073807111
            1979776975 537368949 -147338517</internalNodes>
          <leafValues>
            -6.3279855251312256e-01 7.2666025161743164e-01</leafValues></_>
        <_>
          <internalNodes>
            0 -1 50 1885860935 1573912947 -1994324591 -1648133885
            1107986727 -79167448 1350254995 -1049396293</internalNodes>
          <leafValues>
            -6.6586863994598389e-01 6.7573845386505127e-01</leafValues></_>
        <_>
          <internalNodes>
            0 -1 58 1519757878 1606787334 1627394445 1908642339
            986882833 1746389256 679529105 -858527078</internalNodes>
          <leafValues>
            -7.9605346918106079e-01 5.6146788597106934e-01</leafValues></_>
        <_>
          <internalNodes>
            0 -1 38 1934880191 -805273456 -1324186321 -1878948473
            -939458517 -1744076672 608891 210152142</internalNodes>
          <leafValues>
            -7.6624387502670288e-01 5.6664973497390747e-01</leafValues></_>
        <_>
          <internalNodes>
            0 -1 16 -451161654 272826822 -1072082494 -850833231
            -2147354386 805540033 1610829891 -544223065</internalNodes>
          <leafValues>
            -7.0642101764678955e-01 5.8335906267166138e-01</leafValues></_></weakClassifiers></_>
    <!-- stage 9 -->
    <_>
      <maxWeakCount>5</maxWeakCount>
      <stageThreshold>-1.0592553615570068e+00</stageThreshold>
      <weakClassifiers>
        <_>
          <internalNodes>
            0 -1 40 -135442 -11207701 -16978400 -43647168 -134217729
            -17235969 -16843017 -840302603</internalNodes>
          <leafValues>
            -6.5217393636703491e-01 6.9561159610748291e-01</leafValues></_>
        <_>
          <internalNodes>
            0 -1 3 -75268341 -1290491583 -2126488049 1461011076
            -1174274151 -1706632533 -237876581 1970632657</internalNodes>
          <leafValues>
            -8.5246145725250244e-01 5.4374790191650391e-01</leafValues></_>
        <_>
          <internalNodes>
            0 -1 62 -336080517 298434829 184682517 -209472989 -852178034
            268484671 -419319797 -64496677</internalNodes>
          <leafValues>
            -6.7841345071792603e-01 6.2093758583068848e-01</leafValues></_>
        <_>
          <internalNodes>
            0 -1 51 -199233322 1553485868 406983455 1141051683
            -1434408577 1300283814 -1985436798 -1834769024</internalNodes>
          <leafValues>
            -7.5943130254745483e-01 5.7474428415298462e-01</leafValues></_>
        <_>
          <internalNodes>
            0 -1 19 -144179460 -629931885 553648539 -1656159866
            -494485318 847779477 388531586 -226313295</internalNodes>
          <leafValues>
            -7.6624256372451782e-01 5.4904925823211670e-01</leafValues></_></weakClassifiers></_>
    <!-- stage 10 -->
    <_>
      <maxWeakCount>5</maxWeakCount>
      <stageThreshold>-8.7479799985885620e-01</stageThreshold>
      <weakClassifiers>
        <_>
          <internalNodes>
            0 -1 73 1060896767 61865471 -1648738369 1593773823 536334335
            260005887 364246764 -898433025</internalNodes>
          <leafValues>
            -6.6101694107055664e-01 7.0252573490142822e-01</leafValues></_>
        <_>
          <internalNodes>
            0 -1 28 -921316909 -606252583 -1996469283 1439532819
            -992890181 -120682272 486621035 235723660</internalNodes>
          <leafValues>
            -7.6946562528610229e-01 5.7461124658584595e-01</leafValues></_>
        <_>
          <internalNodes>
            0 -1 88 -7737361 -2105503351 1880103386 -549105529 704803055
            4194568 -670319905 -1884561413</internalNodes>
          <leafValues>
            -6.2565189599990845e-01 6.5722036361694336e-01</leafValues></_>
        <_>
          <internalNodes>
            0 -1 65 -206854361 -1324115157 -692858710 1367347237
            -1306421083 -230129656 1435406580 1375056363</internalNodes>
          <leafValues>
            -7.0396041870117188e-01 6.2992441654205322e-01</leafValues></_>
        <_>
          <internalNodes>
            0 -1 5 -976487454 1124816003 281038893 -796359680 9671139
            42010637 -804919157 -202378429</internalNodes>
          <leafValues>
            -7.0891171693801880e-01 6.0242462158203125e-01</leafValues></_></weakClassifiers></_>
    <!-- stage 11 -->
    <_>
      <maxWeakCount>4</maxWeakCount>
      <stageThreshold>-4.1341841220855713e-01</stageThreshold>
      <weakClassifiers>
        <_>
          <internalNodes>
            0 -1 79 290969304 -2008869806 1543520528 -254553721
            -1702190388 -914357247 -385167221 1104894155</internalNodes>
          <leafValues>
            -8.8108110427856445e-01 5.9024387598037720e-01</leafValues></_>
        <_>
          <internalNodes>
            0 -1 41 -581120769 -707145917 1304026623 2141454311
            -453574657 224259951 -134220561 -9998386</internalNodes>
          <leafValues>
            -5.8515566587448120e-01 6.8459093570709229e-01</leafValues></_>
        <_>
          <internalNodes>
            0 -1 56 -604179505 2138378517 276889726 430915979
            -1605901657 1565556772 -1237729120 -1615343215</internalNodes>
          <leafValues>
            -7.3695296049118042e-01 5.6426888704299927e-01</leafValues></_>
        <_>
          <internalNodes>
            0 -1 20 1398789338 -753886894 352344882 2098921728
            -310271822 -256724844 -2000600486 -1164866894</internalNodes>
          <leafValues>
            -9.0036052465438843e-01 5.2002471685409546e-01</leafValues></_></weakClassifiers></_>
    <!-- stage 12 -->
    <_>
      <maxWeakCount>5</maxWeakCount>
      <stageThreshold>-1.0870541334152222e+00</stageThreshold>
      <weakClassifiers>
        <_>
          <internalNodes>
            0 -1 81 -249827670 555352066 772899138 722371068 117440648
            -804630438 1912750575 -1158745350</internalNodes>
          <leafValues>
            -9.0243899822235107e-01 5.9545087814331055e-01</leafValues></_>
        <_>
          <internalNodes>
            0 -1 11 -692075013 -973029181 16828608 1270711011 957403817
            806035779 1111974723 -135269389</internalNodes>
          <leafValues>
            -6.5178710222244263e-01 6.3181912899017334e-01</leafValues></_>
        <_>
          <internalNodes>
            0 -1 49 802254929 526852755 -1207935979 -795540969 235633283
            -7658356 1764055459 -643830037</internalNodes>
          <leafValues>
            -7.3259902000427246e-01 5.8235061168670654e-01</leafValues></_>
        <_>
          <internalNodes>
            0 -1 4 -1315709105 -796507632 -2147476703 -719777503
            143348462 -265338880 1359587583 -206110312</internalNodes>
          <leafValues>
            -6.7199647426605225e-01 6.0066473484039307e-01</leafValues></_>
        <_>
          <internalNodes>
            0 -1 92 -130493234 -1305160565 -1240430434 -133066741
            1078202950 1266750217 -804597606 -829428085</internalNodes>
          <leafValues>
            -6.8450003862380981e-01 6.1440610885620117e-01</leafValues></_></weakClassifiers></_>
    <!-- stage 13 -->
    <_>
      <maxWeakCount>4</maxWeakCount>
      <stageThreshold>-4.3896660208702087e-01</stageThreshold>
      <weakClassifiers>
        <_>
          <internalNodes>
            0 -1 74 -1953848582 -1994227702 4955851 -934718927
            -1691706721 -1442315774 -1037378869 -455200552</internalNodes>
          <leafValues>
            -8.0629539489746094e-01 6.1752319335937500e-01</leafValues></_>
        <_>
          <internalNodes>
            0 -1 36 1517000607 1996816719 492372982 1971669152 746230455
            -1087176280 113649 871622189</internalNodes>
          <leafValues>
            -6.4516633749008179e-01 6.0723102092742920e-01</leafValues></_>
        <_>
          <internalNodes>
            0 -1 31 2016934335 2081294424 855729217 -1091387181
            668475371 -1281646182 1754796079 716097943</internalNodes>
          <leafValues>
            -7.4139034748077393e-01 5.5795747041702271e-01</leafValues></_>
        <_>
          <internalNodes>
            0 -1 39 2071850730 -639594477 -921681365 -849800957
            1657520831 -2000683007 -1089633383 232360911</internalNodes>
          <leafValues>
            -7.9534780979156494e-01 5.0148814916610718e-01</leafValues></_></weakClassifiers></_>
    <!-- stage 14 -->
    <_>
      <maxWeakCount>6</maxWeakCount>
      <stageThreshold>-4.4291347265243530e-01</stageThreshold>
      <weakClassifiers>
        <_>
          <internalNodes>
            0 -1 70 -778782806 936712441 1133126147 396955723 285545231
            1804468361 -225996534 -537207070</internalNodes>
          <leafValues>
            -7.8325122594833374e-01 6.0134005546569824e-01</leafValues></_>
        <_>
          <internalNodes>
            0 -1 7 -242484989 -1425170368 -2028989038 -47853181
            -1365118277 -649558525 621683347 -7606142</internalNodes>
          <leafValues>
            -6.0418581962585449e-01 6.2521952390670776e-01</leafValues></_>
        <_>
          <internalNodes>
            0 -1 69 -1149994171 -1119872739 687918427 -1617592307
            1744897856 -1086160734 -1300195140 -2049081159</internalNodes>
          <leafValues>
            -6.7903238534927368e-01 5.7844775915145874e-01</leafValues></_>
        <_>
          <internalNodes>
            0 -1 89 -2007772777 721998538 1476460579 -916700790
            1476511167 721814048 1883932801 -1148716325</internalNodes>
          <leafValues>
            -6.3841503858566284e-01 6.4470940828323364e-01</leafValues></_>
        <_>
          <internalNodes>
            0 -1 17 -89934904 -2146606910 17924290 -125484809 1132958574
            167905291 1376416595 -538189245</internalNodes>
          <leafValues>
            -7.6104742288589478e-01 5.1953780651092529e-01</leafValues></_>
        <_>
          <internalNodes>
            0 -1 33 755143568 -196250464 -385722977 -1629682367
            -99359829 -1442250678 176265471 -548551216</internalNodes>
          <leafValues>
            -7.4445229768753052e-01 5.3966069221496582e-01</leafValues></_></weakClassifiers></_>
    <!-- stage 15 -->
    <_>
      <maxWeakCount>6</maxWeakCount>
      <stageThreshold>-5.1048749685287476e-01</stageThreshold>
      <weakClassifiers>
        <_>
          <internalNodes>
            0 -1 86 -2114745 287555605 1359221010 289481759 -78332521
            764084 -1417030962 1083153131</internalNodes>
          <leafValues>
            -6.7014616727828979e-01 6.4317572116851807e-01</leafValues></_>
        <_>
          <internalNodes>
            0 -1 60 1608241274 1493251423 -1928752877 1539511047
            1565907207 1370034413 -922779469 208136347</internalNodes>
          <leafValues>
            -7.9598814249038696e-01 4.9002835154533386e-01</leafValues></_>
        <_>
          <internalNodes>
            0 -1 13 -73963041 -191397521 -2147315646 -98463285 -60073908
            1493240104 -366284798 2134839130</internalNodes>
          <leafValues>
            -7.4950033426284790e-01 4.9896612763404846e-01</leafValues></_>
        <_>
          <internalNodes>
            0 -1 63 -167773057 -8273 530079229 2117820415 -1060336389
            -200933589 1465906653 -1099464833</internalNodes>
          <leafValues>
            -5.8460801839828491e-01 6.5632426738739014e-01</leafValues></_>
        <_>
          <internalNodes>
            0 -1 68 860173548 830742784 1298321563 1640357649 1921014432
            -1342119670 662940361 -1005590386</internalNodes>
          <leafValues>
            -8.5403060913085938e-01 4.6169593930244446e-01</leafValues></_>
        <_>
          <internalNodes>
            0 -1 34 -453512770 2122305820 -2147313403 -950451753
            -1702241858 800135424 956401855 -301550945</internalNodes>
          <leafValues>
            -6.3162946701049805e-01 6.1901950836181641e-01</leafValues></_></weakClassifiers></_>
    <!-- stage 16 -->
    <_>
      <maxWeakCount>6</maxWeakCount>
      <stageThreshold>-1.4978756904602051e+00</stageThreshold>
      <weakClassifiers>
        <_>
          <internalNodes>
            0 -1 32 -745484050 -552159662 1395359022 834802018 285844703
            -1886765921 -1283188898 -70826217</internalNodes>
          <leafValues>
            -7.5438594818115234e-01 5.8368027210235596e-01</leafValues></_>
        <_>
          <internalNodes>
            0 -1 27 -150033425 -251490023 856137683 -139374567 637805187
            -482150143 61114267 -883963203</internalNodes>
          <leafValues>
            -5.7137185335159302e-01 6.2615483999252319e-01</leafValues></_>
        <_>
          <internalNodes>
            0 -1 47 241458687 827344184 8442107 924662239 151630059
            974713507 187219135 1059865006</internalNodes>
          <leafValues>
            -6.7147314548492432e-01 5.6308698654174805e-01</leafValues></_>
        <_>
          <internalNodes>
            0 -1 1 544444895 -1237773421 -1743687248 -548075196
            1900168667 -1190985207 -742342450 -419329791</internalNodes>
          <leafValues>
            -6.0050970315933228e-01 6.3136059045791626e-01</leafValues></_>
        <_>
          <internalNodes>
            0 -1 37 -800022313 -687800041 -1056586407 -409562353 5357715
            -216323885 -1811875178 136902381</internalNodes>
          <leafValues>
            -7.7610796689987183e-01 4.8642095923423767e-01</leafValues></_>
        <_>
          <internalNodes>
            0 -1 64 -1013927237 -1110007525 25358606 -1140912812 660746
            207194537 686514753 -5313614</internalNodes>
          <leafValues>
            -7.2462230920791626e-01 5.2782213687896729e-01</leafValues></_></weakClassifiers></_>
    <!-- stage 17 -->
    <_>
      <maxWeakCount>5</maxWeakCount>
      <stageThreshold>-8.6978340148925781e-01</stageThreshold>
      <weakClassifiers>
        <_>
          <internalNodes>
            0 -1 57 1826694823 1609678755 1040146141 -590004481
            2147481591 -25 -33091 -822083858</internalNodes>
          <leafValues>
            -5.2397263050079346e-01 6.9488191604614258e-01</leafValues></_>
        <_>
          <internalNodes>
            0 -1 45 -1620014849 1031144479 330905446 2078327078
            -802144005 -1275362903 145417314 782494250</internalNodes>
          <leafValues>
            -6.8416619300842285e-01 5.5795633792877197e-01</leafValues></_>
        <_>
          <internalNodes>
            0 -1 80 -38021650 -12303966 1476612417 -715838375 440430915
            -2047322111 -661455369 -1412548103</internalNodes>
          <leafValues>
            -6.7492151260375977e-01 5.5798447132110596e-01</leafValues></_>
        <_>
          <internalNodes>
            0 -1 91 1534312395 738246784 -2129043134 96162109
            -2146761846 145514642 -959705426 -1915510313</internalNodes>
          <leafValues>
            -6.5460383892059326e-01 5.7388681173324585e-01</leafValues></_>
        <_>
          <internalNodes>
            0 -1 61 1536415820 151552031 402718720 1571562787 2014349328
            -2010615133 1074326623 -986317993</internalNodes>
          <leafValues>
            -7.7946430444717407e-01 4.4724091887474060e-01</leafValues></_></weakClassifiers></_>
    <!-- stage 18 -->
    <_>
      <maxWeakCount>5</maxWeakCount>
      <stageThreshold>-1.1046677827835083e+00</stageThreshold>
      <weakClassifiers>
        <_>
          <internalNodes>
            0 -1 75 -117351360 -1069125631 352343508 1359806739
            -1173161462 -2147409920 -1306280965 315532187</internalNodes>
          <leafValues>
            -9.1054314374923706e-01 5.3224551677703857e-01</leafValues></_>
        <_>
          <internalNodes>
            0 -1 22 -1467770374 -988998592 -805042861 -653277487
            -938927173 -938891126 184598431 -276060959</internalNodes>
          <leafValues>
            -6.2634754180908203e-01 5.7873290777206421e-01</leafValues></_>
        <_>
          <internalNodes>
            0 -1 14 -1852878369 943927705 8519904 -173689582 -32792438
            136642593 -1970945557 2105083225</internalNodes>
          <leafValues>
            -7.0494544506072998e-01 5.2553939819335938e-01</leafValues></_>
        <_>
          <internalNodes>
            0 -1 43 2052115205 -1816277447 1345511776 -1539996430
            -524463265 -1305542527 -1451188176 -1413554881</internalNodes>
          <leafValues>
            -7.1863633394241333e-01 4.8708793520927429e-01</leafValues></_>
        <_>
          <internalNodes>
            0 -1 52 765850999 412182407 545329296 -1111030638 1870744887
            -1736375645 730552579 -2062605941</internalNodes>
          <leafValues>
            -7.9206454753875732e-01 4.3107330799102783e-01</leafValues></_></weakClassifiers></_>
    <!-- stage 19 -->
    <_>
      <maxWeakCount>6</maxWeakCount>
      <stageThreshold>-4.5625698566436768e-01</stageThreshold>
      <weakClassifiers>
        <_>
          <internalNodes>
            0 -1 35 -746067474 504115398 -1055829529 492277852
            1656924831 -1834303358 -1581143767 247931051</internalNodes>
          <leafValues>
            -7.0192307233810425e-01 5.8445948362350464e-01</leafValues></_>
        <_>
          <internalNodes>
            0 -1 90 1346885198 -656834493 -798981090 -1877493609
            1343782926 -1430257617 -890455985 -254031121</internalNodes>
          <leafValues>
            -6.5152794122695923e-01 5.2534675598144531e-01</leafValues></_>
        <_>
          <internalNodes>
            0 -1 25 -1073788707 1463114808 -114892 1574526893
            -1074001688 -1637987164 2122244095 -4235270</internalNodes>
          <leafValues>
            -5.4801869392395020e-01 6.3677912950515747e-01</leafValues></_>
        <_>
          <internalNodes>
            0 -1 46 -1227730105 1933529137 268961366 1266839800
            -787291239 1242775604 447542258 -1346917193</internalNodes>
          <leafValues>
            -6.9670534133911133e-01 5.2248340845108032e-01</leafValues></_>
        <_>
          <internalNodes>
            0 -1 44 1290524603 -176968789 1258286835 -205082656
            401424375 -1073758273 2144174053 -135270401</internalNodes>
          <leafValues>
            -5.9416818618774414e-01 6.1756157875061035e-01</leafValues></_>
        <_>
          <internalNodes>
            0 -1 8 -135402768 420729329 -385152742 -20063703 1662325610
            -147782004 1487094668 1599343369</internalNodes>
          <leafValues>
            -8.4477508068084717e-01 4.2877846956253052e-01</leafValues></_></weakClassifiers></_></stages>
  <features>
    <_>
      <rect>
        0 8 8 5</rect></_>
    <_>
      <rect>
        0 17 10 3</rect></_>
    <_>
      <rect>
        1 9 6 7</rect></_>
    <_>
      <rect>
        2 2 8 8</rect></_>
    <_>
      <rect>
        2 6 12 8</rect></_>
    <_>
      <rect>
        3 6 3 7</rect></_>
    <_>
      <rect>
        3 6 6 8</rect></_>
    <_>
      <rect>
        3 9 4 3</rect></_>
    <_>
      <rect>
        3 10 9 10</rect></_>
    <_>
      <rect>
        3 11 6 5</rect></_>
    <_>
      <rect>
        3 11 6 6</rect></_>
    <_>
      <rect>
        3 13 3 3</rect></_>
    <_>
      <rect>
        3 14 5 7</rect></_>
    <_>
      <rect>
        3 14 5 8</rect></_>
    <_>
      <rect>
        3 15 8 8</rect></_>
    <_>
      <rect>
        3 16 11 8</rect></_>
    <_>
      <rect>
        4 14 2 2</rect></_>
    <_>
      <rect>
        4 14 2 3</rect></_>
    <_>
      <rect>
        6 8 3 8</rect></_>
    <_>
      <rect>
        6 8 6 7</rect></_>
    <_>
      <rect>
        6 9 9 8</rect></_>
    <_>
      <rect>
        7 5 7 5</rect></_>
    <_>
      <rect>
        7 6 3 3</rect></_>
    <_>
      <rect>
        7 16 8 4</rect></_>
    <_>
      <rect>
        7 18 8 3</rect></_>
    <_>
      <rect>
        7 25 4 5</rect></_>
    <_>
      <rect>
        8 5 10 5</rect></_>
    <_>
      <rect>
        8 9 4 5</rect></_>
    <_>
      <rect>
        9 3 9 6</rect></_>
    <_>
      <rect>
        9 13 4 4</rect></_>
    <_>
      <rect>
        9 14 4 4</rect></_>
    <_>
      <rect>
        10 5 10 8</rect></_>
    <_>
      <rect>
        10 15 7 5</rect></_>
    <_>
      <rect>
        11 4 3 3</rect></_>
    <_>
      <rect>
        11 8 8 6</rect></_>
    <_>
      <rect>
        11 14 3 3</rect></_>
    <_>
      <rect>
        11 15 6 3</rect></_>
    <_>
      <rect>
        12 4 9 5</rect></_>
    <_>
      <rect>
        12 7 9 8</rect></_>
    <_>
      <rect>
        12 12 3 5</rect></_>
    <_>
      <rect>
        12 16 3 4</rect></_>
    <_>
      <rect>
        12 17 5 3</rect></_>
    <_>
      <rect>
        13 12 5 5</rect></_>
    <_>
      <rect>
        13 12 6 5</rect></_>
    <_>
      <rect>
        13 14 5 3</rect></_>
    <_>
      <rect>
        13 14 5 4</rect></_>
    <_>
      <rect>
        13 18 5 2</rect></_>
    <_>
      <rect>
        13 27 7 4</rect></_>
    <_>
      <rect>
        14 10 4 6</rect></_>
    <_>
      <rect>
        14 14 3 3</rect></_>
    <_>
      <rect>
        14 14 3 4</rect></_>
    <_>
      <rect>
        14 14 8 5</rect></_>
    <_>
      <rect>
        14 15 3 3</rect></_>
    <_>
      <rect>
        14 16 4 3</rect></_>
    <_>
      <rect>
        14 16 6 3</rect></_>
    <_>
      <rect>
        14 18 3 2</rect></_>
    <_>
      <rect>
        14 18 4 2</rect></_>
    <_>
      <rect>
        15 12 3 4</rect></_>
    <_>
      <rect>
        15 13 3 4</rect></_>
    <_>
      <rect>
        15 14 4 5</rect></_>
    <_>
      <rect>
        15 15 3 4</rect></_>
    <_>
      <rect>
        15 17 2 3</rect></_>
    <_>
      <rect>
        15 17 3 3</rect></_>
    <_>
      <rect>
        15 19 3 2</rect></_>
    <_>
      <rect>
        16 14 4 4</rect></_>
    <_>
      <rect>
        16 16 3 3</rect></_>
    <_>
      <rect>
        16 17 2 2</rect></_>
    <_>
      <rect>
        16 18 3 2</rect></_>
    <_>
      <rect>
        17 14 2 3</rect></_>
    <_>
      <rect>
        17 15 2 2</rect></_>
    <_>
      <rect>
        17 15 4 4</rect></_>
    <_>
      <rect>
        17 15 5 8</rect></_>
    <_>
      <rect>
        17 16 4 3</rect></_>
    <_>
      <rect>
        17 18 2 2</rect></_>
    <_>
      <rect>
        18 17 1 2</rect></_>
    <_>
      <rect>
        18 18 2 1</rect></_>
    <_>
      <rect>
        18 19 1 1</rect></_>
    <_>
      <rect>
        18 19 2 2</rect></_>
    <_>
      <rect>
        19 2 7 10</rect></_>
    <_>
      <rect>
        19 17 1 2</rect></_>
    <_>
      <rect>
        19 17 2 2</rect></_>
    <_>
      <rect>
        19 17 2 3</rect></_>
    <_>
      <rect>
        19 18 1 1</rect></_>
    <_>
      <rect>
        19 19 1 1</rect></_>
    <_>
      <rect>
        19 20 2 1</rect></_>
    <_>
      <rect>
        22 8 6 7</rect></_>
    <_>
      <rect>
        24 18 5 3</rect></_>
    <_>
      <rect>
        26 15 4 6</rect></_>
    <_>
      <rect>
        26 21 4 4</rect></_>
    <_>
      <rect>
        26 22 4 5</rect></_>
    <_>
      <rect>
        28 10 4 3</rect></_>
    <_>
      <rect>
        29 19 3 4</rect></_>
    <_>
      <rect>
        31 12 3 2</rect></_></features></cascade>
</opencv_storage>
