<?xml version="1.0"?>
<opencv_storage>
<cascade>
  <stageType>BOOST</stageType>
  <featureType>LBP</featureType>
  <height>40</height>
  <width>40</width>
  <stageParams>
    <boostType>GAB</boostType>
    <minHitRate>9.9900001287460327e-01</minHitRate>
    <maxFalseAlarm>5.0000000000000000e-01</maxFalseAlarm>
    <weightTrimRate>9.4999999999999996e-01</weightTrimRate>
    <maxDepth>1</maxDepth>
    <maxWeakCount>100</maxWeakCount></stageParams>
  <featureParams>
    <maxCatCount>256</maxCatCount>
    <featSize>1</featSize></featureParams>
  <stageNum>20</stageNum>
  <stages>
    <!-- stage 0 -->
    <_>
      <maxWeakCount>3</maxWeakCount>
      <stageThreshold>-9.9110376834869385e-01</stageThreshold>
      <weakClassifiers>
        <_>
          <internalNodes>
            0 -1 58 -206574930 -654073600 1342242816 1359188226
            -1040022901 168034370 -1072988117 1432068491</internalNodes>
          <leafValues>
            -9.4149911403656006e-01 8.0716252326965332e-01</leafValues></_>
        <_>
          <internalNodes>
            0 -1 13 -716834134 -753679925 2178 -1023311870 -1073022840
            -1157529462 176726159 -607394165</internalNodes>
          <leafValues>
            -8.5551714897155762e-01 8.4701758623123169e-01</leafValues></_>
        <_>
          <internalNodes>
            0 -1 22 -1039155070 -1073463286 64 1346830336 -2105287253
            51330 1140949675 -951328309</internalNodes>
          <leafValues>
            -8.3179491758346558e-01 8.0591249465942383e-01</leafValues></_></weakClassifiers></_>
    <!-- stage 1 -->
    <_>
      <maxWeakCount>4</maxWeakCount>
      <stageThreshold>-1.7017008066177368e+00</stageThreshold>
      <weakClassifiers>
        <_>
          <internalNodes>
            0 -1 12 -187768578 -930602998 -1879039870 805310482
            -905846102 1076002818 -1568499229 -69472117</internalNodes>
          <leafValues>
            -8.2752293348312378e-01 7.4702107906341553e-01</leafValues></_>
        <_>
          <internalNodes>
            0 -1 46 -140774503 -171597509 1291866195 -553580535
            -134174168 -1442709502 134263042 -98837846</internalNodes>
          <leafValues>
            -7.7811002731323242e-01 7.7978420257568359e-01</leafValues></_>
        <_>
          <internalNodes>
            0 -1 56 -137917046 -775714141 65538 2031194457 -670635893
            -762363887 -1400135525 1397207691</internalNodes>
          <leafValues>
            -8.6700618267059326e-01 6.6325646638870239e-01</leafValues></_>
        <_>
          <internalNodes>
            0 -1 32 -204296232 -720174976 -1073657573 -245530432
            -669940742 -108331000 -1325229157 -617898854</internalNodes>
          <leafValues>
            -8.0360567569732666e-01 7.1794265508651733e-01</leafValues></_></weakClassifiers></_>
    <!-- stage 2 -->
    <_>
      <maxWeakCount>2</maxWeakCount>
      <stageThreshold>-2.4733993411064148e-01</stageThreshold>
      <weakClassifiers>
        <_>
          <internalNodes>
            0 -1 47 -144773206 -648717634 33653186 -783953466 134455464
            1109032960 -368400168 121366922</internalNodes>
          <leafValues>
            -9.3952482938766479e-01 6.8115943670272827e-01</leafValues></_>
        <_>
          <internalNodes>
            0 -1 19 -616191768 -179183589 -2126476630 2000918545
            -1064593160 -1148647284 -1728050437 -79722097</internalNodes>
          <leafValues>
            -8.3847618103027344e-01 6.9218492507934570e-01</leafValues></_></weakClassifiers></_>
    <!-- stage 3 -->
    <_>
      <maxWeakCount>2</maxWeakCount>
      <stageThreshold>-2.6649400591850281e-01</stageThreshold>
      <weakClassifiers>
        <_>
          <internalNodes>
            0 -1 57 -679760914 -36470781 8617994 1197183235 -1006141205
            1124319744 269192110 1395128211</internalNodes>
          <leafValues>
            -9.0274840593338013e-01 6.8013757467269897e-01</leafValues></_>
        <_>
          <internalNodes>
            0 -1 66 -229978420 -673987619 49347 -687501181 -1073689941
            1611434371 33596831 1172029595</internalNodes>
          <leafValues>
            -8.1671434640884399e-01 6.3625442981719971e-01</leafValues></_></weakClassifiers></_>
    <!-- stage 4 -->
    <_>
      <maxWeakCount>5</maxWeakCount>
      <stageThreshold>-1.1245150566101074e+00</stageThreshold>
      <weakClassifiers>
        <_>
          <internalNodes>
            0 -1 86 -748684702 -745861093 -1006583648 1073963395
            -767500286 -1073623040 1107554338 -685769809</internalNodes>
          <leafValues>
            -7.9584121704101562e-01 7.0912373065948486e-01</leafValues></_>
        <_>
          <internalNodes>
            0 -1 53 469163791 420071424 -787329020 -586416120 186493994
            -670466048 -1869749560 -2100242</internalNodes>
          <leafValues>
            -7.9864627122879028e-01 6.1033737659454346e-01</leafValues></_>
        <_>
          <internalNodes>
            0 -1 31 -45047400 -16297936 1073877143 2146017605
            -2101180230 -1983408968 -120711014 -67171410</internalNodes>
          <leafValues>
            -7.6412814855575562e-01 6.3356250524520874e-01</leafValues></_>
        <_>
          <internalNodes>
            0 -1 14 -1072643382 -175046656 1209032733 261128201
            -2062843765 -1994512370 50892207 -818157365</internalNodes>
          <leafValues>
            -7.5025218725204468e-01 7.3020660877227783e-01</leafValues></_>
        <_>
          <internalNodes>
            0 -1 64 -247081632 -572948480 352391408 -136851367
            -1970632552 -2004057398 -486012839 -7348081</internalNodes>
          <leafValues>
            -8.1900662183761597e-01 5.7536917924880981e-01</leafValues></_></weakClassifiers></_>
    <!-- stage 5 -->
    <_>
      <maxWeakCount>4</maxWeakCount>
      <stageThreshold>-2.3547923564910889e-01</stageThreshold>
      <weakClassifiers>
        <_>
          <internalNodes>
            0 -1 43 -176294125 2004744049 -1 -176816297 -50528325
            -25264333 -524357 -195725545</internalNodes>
          <leafValues>
            -6.7003369331359863e-01 7.3128598928451538e-01</leafValues></_>
        <_>
          <internalNodes>
            0 -1 87 -70255134 -309689600 35835904 1124143131 -760487824
            -1845424126 6980032 -673188177</internalNodes>
          <leafValues>
            -7.5603848695755005e-01 6.2441736459732056e-01</leafValues></_>
        <_>
          <internalNodes>
            0 -1 33 -725039665 -754253557 -1073151437 421463041
            1897622459 -643792606 -1060923233 1262905866</internalNodes>
          <leafValues>
            -8.4861928224563599e-01 5.7300347089767456e-01</leafValues></_>
        <_>
          <internalNodes>
            0 -1 70 -720374379 -754773877 -2130619631 -41167029
            -1073176440 -116244480 16875656 -628670287</internalNodes>
          <leafValues>
            -7.4256330728530884e-01 6.6549944877624512e-01</leafValues></_></weakClassifiers></_>
    <!-- stage 6 -->
    <_>
      <maxWeakCount>4</maxWeakCount>
      <stageThreshold>-1.4951349496841431e+00</stageThreshold>
      <weakClassifiers>
        <_>
          <internalNodes>
            0 -1 60 -372905813 -38956917 -1862107133 -146291385
            -393700673 1342242978 563276987 1398786184</internalNodes>
          <leafValues>
            -7.9199999570846558e-01 6.6901409626007080e-01</leafValues></_>
        <_>
          <internalNodes>
            0 -1 4 -955846161 -575319992 -775876195 -1627156157
            1250482653 -887979451 1166053511 1340592471</internalNodes>
          <leafValues>
            -6.8108105659484863e-01 6.6215950250625610e-01</leafValues></_>
        <_>
          <internalNodes>
            0 -1 16 -502603574 1113653826 1191216407 -251178876
            -402546197 -1035747127 -1012673597 -1022373397</internalNodes>
          <leafValues>
            -6.9829994440078735e-01 6.3764792680740356e-01</leafValues></_>
        <_>
          <internalNodes>
            0 -1 3 -794412870 -644673325 290492820 1970753552 545685691
            -936836991 -2110656328 -14475258</internalNodes>
          <leafValues>
            -7.8476798534393311e-01 5.8244466781616211e-01</leafValues></_></weakClassifiers></_>
    <!-- stage 7 -->
    <_>
      <maxWeakCount>5</maxWeakCount>
      <stageThreshold>-9.7232913970947266e-01</stageThreshold>
      <weakClassifiers>
        <_>
          <internalNodes>
            0 -1 50 -921971478 -305037163 41992192 -220675701
            -2147304517 1212904 578990208 -70729477</internalNodes>
          <leafValues>
            -7.7906978130340576e-01 6.8392854928970337e-01</leafValues></_>
        <_>
          <internalNodes>
            0 -1 81 -577020836 -782805939 1073976371 1360068621
            -670898168 -385482751 1518985407 -1154786321</internalNodes>
          <leafValues>
            -6.8522393703460693e-01 6.5176272392272949e-01</leafValues></_>
        <_>
          <internalNodes>
            0 -1 67 -365309504 -586972615 -1727721321 -1627172717
            1346586858 -233713493 17387791 -40941041</internalNodes>
          <leafValues>
            -7.5637274980545044e-01 5.6815648078918457e-01</leafValues></_>
        <_>
          <internalNodes>
            0 -1 2 -648807202 -229543923 335560759 -1828403961
            -1475696557 201923 -217266045 -484183977</internalNodes>
          <leafValues>
            -6.7387557029724121e-01 7.0548737049102783e-01</leafValues></_>
        <_>
          <internalNodes>
            0 -1 36 -264572668 -681955307 -1592721263 1157841547
            12828827 -947257336 544063749 -552864949</internalNodes>
          <leafValues>
            -7.3930305242538452e-01 6.5201193094253540e-01</leafValues></_></weakClassifiers></_>
    <!-- stage 8 -->
    <_>
      <maxWeakCount>5</maxWeakCount>
      <stageThreshold>-9.6004027128219604e-01</stageThreshold>
      <weakClassifiers>
        <_>
          <internalNodes>
            0 -1 62 -1583097068 31039635 -753789696 -761850729
            -2008345976 164135040 -1849619648 -20010758</internalNodes>
          <leafValues>
            -7.8111588954925537e-01 6.2222224473953247e-01</leafValues></_>
        <_>
          <internalNodes>
            0 -1 89 -14952101 -135005345 1929346815 1919901526 -75858230
            -419469489 -230948866 -217907361</internalNodes>
          <leafValues>
            -5.8711671829223633e-01 7.0887494087219238e-01</leafValues></_>
        <_>
          <internalNodes>
            0 -1 9 -774540505 -1819156320 306659477 -80780861 -791330385
            -1390366583 -1292008977 -293026933</internalNodes>
          <leafValues>
            -6.8944865465164185e-01 6.4747959375381470e-01</leafValues></_>
        <_>
          <internalNodes>
            0 -1 24 -418205232 -749497936 -1878916717 -36595367
            -1073510222 -1298956096 303401891 -1347808896</internalNodes>
          <leafValues>
            -8.0246007442474365e-01 5.8146595954895020e-01</leafValues></_>
        <_>
          <internalNodes>
            0 -1 73 -773852992 -683294207 9601179 1930772799 -265035644
            -2146713336 1428193422 -540040818</internalNodes>
          <leafValues>
            -7.3893433809280396e-01 5.6317269802093506e-01</leafValues></_></weakClassifiers></_>
    <!-- stage 9 -->
    <_>
      <maxWeakCount>4</maxWeakCount>
      <stageThreshold>-4.3092331290245056e-01</stageThreshold>
      <weakClassifiers>
        <_>
          <internalNodes>
            0 -1 18 -959515958 -490569148 -1060978688 1377862274
            -1063392181 1074429960 -714628833 1433379739</internalNodes>
          <leafValues>
            -8.9847713708877563e-01 5.7809984683990479e-01</leafValues></_>
        <_>
          <internalNodes>
            0 -1 76 -241579 -581894133 -1342106693 1359872535 -394230597
            -1291277815 -939468065 -1153822981</internalNodes>
          <leafValues>
            -6.3955318927764893e-01 6.6302943229675293e-01</leafValues></_>
        <_>
          <internalNodes>
            0 -1 44 -539056465 -203584382 -2130640298 1563304071
            -658001499 1531670785 2135118571 1579388314</internalNodes>
          <leafValues>
            -7.6638472080230713e-01 5.7805269956588745e-01</leafValues></_>
        <_>
          <internalNodes>
            0 -1 54 25641227 -786977213 312289288 -183074338 -75396249
            -1971027840 -267812340 -338785782</internalNodes>
          <leafValues>
            -7.7352821826934814e-01 5.9070664644241333e-01</leafValues></_></weakClassifiers></_>
    <!-- stage 10 -->
    <_>
      <maxWeakCount>6</maxWeakCount>
      <stageThreshold>-5.5910086631774902e-01</stageThreshold>
      <weakClassifiers>
        <_>
          <internalNodes>
            0 -1 59 -875108182 -44044006 -1073577720 -136849256
            -609492797 860071951 -1514474833 1965017311</internalNodes>
          <leafValues>
            -8.7277352809906006e-01 5.6878519058227539e-01</leafValues></_>
        <_>
          <internalNodes>
            0 -1 72 -539362959 -648429504 1896415587 1360630160
            -123098616 -1508339320 164289082 -1722028294</internalNodes>
          <leafValues>
            -6.9230496883392334e-01 5.7824003696441650e-01</leafValues></_>
        <_>
          <internalNodes>
            0 -1 6 1162863599 -78540733 -786706163 -8916991 -2113349489
            -1424226805 1141436870 -1958370131</internalNodes>
          <leafValues>
            -6.6534733772277832e-01 6.2631142139434814e-01</leafValues></_>
        <_>
          <internalNodes>
            0 -1 55 1194187595 -1982590591 822169996 -242868285
            -2003234487 -124582644 -2127768924 -590425912</internalNodes>
          <leafValues>
            -7.4784582853317261e-01 5.4972535371780396e-01</leafValues></_>
        <_>
          <internalNodes>
            0 -1 30 -575614346 -715456425 1397757019 -618232973
            -1190604609 -1082130173 -1174236773 -1146418693</internalNodes>
          <leafValues>
            -6.7341285943984985e-01 6.4199519157409668e-01</leafValues></_>
        <_>
          <internalNodes>
            0 -1 90 -77606590 -225609453 -1073663902 1343078444
            -800545984 -2127921120 -519577125 -212342242</internalNodes>
          <leafValues>
            -7.6719129085540771e-01 5.3793513774871826e-01</leafValues></_></weakClassifiers></_>
    <!-- stage 11 -->
    <_>
      <maxWeakCount>6</maxWeakCount>
      <stageThreshold>-2.5608161091804504e-01</stageThreshold>
      <weakClassifiers>
        <_>
          <internalNodes>
            0 -1 29 -368115697 -551747243 1142849306 -554660642
            570960399 -95287797 -1442113105 1366374587</internalNodes>
          <leafValues>
            -8.5937500000000000e-01 5.5431312322616577e-01</leafValues></_>
        <_>
          <internalNodes>
            0 -1 17 2138992639 -1073779539 798125823 1645094952 -8392962
            -32897 2139021302 -906</internalNodes>
          <leafValues>
            -5.8161354064941406e-01 6.6357159614562988e-01</leafValues></_>
        <_>
          <internalNodes>
            0 -1 26 -145502470 -266681786 -2069052234 1065940945
            -2012165896 -1856470016 346605788 -57033813</internalNodes>
          <leafValues>
            -7.9274690151214600e-01 5.0564986467361450e-01</leafValues></_>
        <_>
          <internalNodes>
            0 -1 83 -1 -1351613244 1031539861 1070626557 -1073766924
            -1233175299 -8520451 -299303</internalNodes>
          <leafValues>
            -6.0420686006546021e-01 6.8822658061981201e-01</leafValues></_>
        <_>
          <internalNodes>
            0 -1 85 -41951678 -715997089 -1609809630 -972970739
            -1874093184 -1860697564 101623284 -137375591</internalNodes>
          <leafValues>
            -7.4461251497268677e-01 5.5210959911346436e-01</leafValues></_>
        <_>
          <internalNodes>
            0 -1 20 -538739203 2142759921 670824177 -1086516227
            268218366 -1073872898 243021055 -538918187</internalNodes>
          <leafValues>
            -5.2992659807205200e-01 7.8885459899902344e-01</leafValues></_></weakClassifiers></_>
    <!-- stage 12 -->
    <_>
      <maxWeakCount>6</maxWeakCount>
      <stageThreshold>-6.2292933464050293e-01</stageThreshold>
      <weakClassifiers>
        <_>
          <internalNodes>
            0 -1 84 -126092905 -90583033 1880674354 1382021195
            -928868342 1141941258 1755030463 1916464703</internalNodes>
          <leafValues>
            -6.7588931322097778e-01 6.2477874755859375e-01</leafValues></_>
        <_>
          <internalNodes>
            0 -1 5 -484976146 -821182426 68158510 -1117618045
            -1542799893 704645314 3820763 -79212857</internalNodes>
          <leafValues>
            -7.2323703765869141e-01 5.3609466552734375e-01</leafValues></_>
        <_>
          <internalNodes>
            0 -1 80 154358872 1545293905 4227095 -786739899 -366393093
            -1690390269 -1187337781 1915378779</internalNodes>
          <leafValues>
            -8.3627629280090332e-01 4.3607908487319946e-01</leafValues></_>
        <_>
          <internalNodes>
            0 -1 27 -1547670552 590348327 1477908041 1233732187 75607436
            -1331527027 -2137879350 -1612207989</internalNodes>
          <leafValues>
            -7.6030629873275757e-01 5.0007528066635132e-01</leafValues></_>
        <_>
          <internalNodes>
            0 -1 71 -976324114 -586036331 1104416976 865075865
            -178786097 1348935815 -520076337 -993059361</internalNodes>
          <leafValues>
            -7.0124167203903198e-01 5.1991397142410278e-01</leafValues></_>
        <_>
          <internalNodes>
            0 -1 41 1361728829 -983215273 1346503550 -1122643440
            706882399 -1191172061 546319275 -74325233</internalNodes>
          <leafValues>
            -6.6142499446868896e-01 5.9353387355804443e-01</leafValues></_></weakClassifiers></_>
    <!-- stage 13 -->
    <_>
      <maxWeakCount>4</maxWeakCount>
      <stageThreshold>-4.6326214075088501e-01</stageThreshold>
      <weakClassifiers>
        <_>
          <internalNodes>
            0 -1 63 2059131733 1998158709 -570433701 1463746167
            -17122339 -38027267 -4243489 975867770</internalNodes>
          <leafValues>
            -5.5189454555511475e-01 6.7930030822753906e-01</leafValues></_>
        <_>
          <internalNodes>
            0 -1 39 -142540982 -651962986 -1446666252 2003685568
            118170283 19862000 -393286238 2055196498</internalNodes>
          <leafValues>
            -8.7349259853363037e-01 4.7184398770332336e-01</leafValues></_>
        <_>
          <internalNodes>
            0 -1 48 -541764352 2074415409 -540846672 1598169133
            -1182228342 -1682357374 -1106666598 -543331957</internalNodes>
          <leafValues>
            -7.6180148124694824e-01 4.6812999248504639e-01</leafValues></_>
        <_>
          <internalNodes>
            0 -1 79 1506663003 -548990947 247071 1347518877 -1555305592
            453705728 1275268683 1087035753</internalNodes>
          <leafValues>
            -7.3719984292984009e-01 5.1835846900939941e-01</leafValues></_></weakClassifiers></_>
    <!-- stage 14 -->
    <_>
      <maxWeakCount>5</maxWeakCount>
      <stageThreshold>-9.1612553596496582e-01</stageThreshold>
      <weakClassifiers>
        <_>
          <internalNodes>
            0 -1 61 -1413620078 647222767 -268236704 1942995059
            -800702258 -1065312247 -753686528 -137429454</internalNodes>
          <leafValues>
            -6.8163263797760010e-01 6.0907506942749023e-01</leafValues></_>
        <_>
          <internalNodes>
            0 -1 88 -716598509 -514895341 -925482797 1447124999
            -1027358065 -2137439919 -291896625 -1022173366</internalNodes>
          <leafValues>
            -6.0563689470291138e-01 6.1903589963912964e-01</leafValues></_>
        <_>
          <internalNodes>
            0 -1 1 -127190321 -730175965 1562612094 -1029025529
            -929658275 1610817563 -752385529 1181643971</internalNodes>
          <leafValues>
            -7.6434201002120972e-01 4.9788647890090942e-01</leafValues></_>
        <_>
          <internalNodes>
            0 -1 68 -491948039 -518815486 420549888 -536776696
            -2109210192 -1601691637 -961906968 -92292742</internalNodes>
          <leafValues>
            -6.5003490447998047e-01 6.1169058084487915e-01</leafValues></_>
        <_>
          <internalNodes>
            0 -1 25 -394080003 -24506071 822187359 1996730654 1244003067
            -838762439 102320809 1334968712</internalNodes>
          <leafValues>
            -6.8577629327774048e-01 5.2329242229461670e-01</leafValues></_></weakClassifiers></_>
    <!-- stage 15 -->
    <_>
      <maxWeakCount>5</maxWeakCount>
      <stageThreshold>-8.9274197816848755e-01</stageThreshold>
      <weakClassifiers>
        <_>
          <internalNodes>
            0 -1 51 -1151361255 -125761129 1117691 -1384578853
            -2082174422 -1832326088 302319922 -96821704</internalNodes>
          <leafValues>
            -6.7139959335327148e-01 6.0804897546768188e-01</leafValues></_>
        <_>
          <internalNodes>
            0 -1 7 -808986369 -964181503 33554743 -741346941 -1475566641
            -825785842 56808193 1200616147</internalNodes>
          <leafValues>
            -6.4771914482116699e-01 5.7088780403137207e-01</leafValues></_>
        <_>
          <internalNodes>
            0 -1 52 -140592265 -1759800158 -1591649948 -12467776
            1124989131 1908961554 -1463458995 529527240</internalNodes>
          <leafValues>
            -6.9542330503463745e-01 5.3603059053421021e-01</leafValues></_>
        <_>
          <internalNodes>
            0 -1 34 2059305168 -1289764565 1284294700 -367459060
            -645390597 156242156 -393339750 1507805419</internalNodes>
          <leafValues>
            -7.2453927993774414e-01 5.2371817827224731e-01</leafValues></_>
        <_>
          <internalNodes>
            0 -1 45 -46154403 2138545023 1732198388 2000530111
            -117629911 -39881730 1678106591 -179443009</internalNodes>
          <leafValues>
            -6.0372149944305420e-01 6.5429598093032837e-01</leafValues></_></weakClassifiers></_>
    <!-- stage 16 -->
    <_>
      <maxWeakCount>5</maxWeakCount>
      <stageThreshold>-8.3521705865859985e-01</stageThreshold>
      <weakClassifiers>
        <_>
          <internalNodes>
            0 -1 10 -615129842 -333130556 169411677 -4161372 -805203473
            -385572732 677421159 -253432186</internalNodes>
          <leafValues>
            -8.0500000715255737e-01 5.5501616001129150e-01</leafValues></_>
        <_>
          <internalNodes>
            0 -1 77 -32805 -1233322223 1988064115 2010644343 -2114600
            -1936130288 -227280006 -772014094</internalNodes>
          <leafValues>
            -5.4669302701950073e-01 6.4800000190734863e-01</leafValues></_>
        <_>
          <internalNodes>
            0 -1 15 -80756485 -68300565 -2057 -35653889 -1347486725
            -805306891 1865415603 -1990737455</internalNodes>
          <leafValues>
            -5.2116763591766357e-01 7.0087343454360962e-01</leafValues></_>
        <_>
          <internalNodes>
            0 -1 74 -741878511 890080557 -665787057 -699957105
            -1869774720 -2088728128 -1715615485 -1852182818</internalNodes>
          <leafValues>
            -6.9635862112045288e-01 5.5612277984619141e-01</leafValues></_>
        <_>
          <internalNodes>
            0 -1 53 292247911 1426076032 -1721400794 -170204920 13724271
            1208078346 -1064989940 -37772129</internalNodes>
          <leafValues>
            -6.8273192644119263e-01 5.8582186698913574e-01</leafValues></_></weakClassifiers></_>
    <!-- stage 17 -->
    <_>
      <maxWeakCount>6</maxWeakCount>
      <stageThreshold>-6.7061024904251099e-01</stageThreshold>
      <weakClassifiers>
        <_>
          <internalNodes>
            0 -1 69 -182836098 -709319276 -1853358024 1025716488
            1215900091 1677859853 1627934171 208390367</internalNodes>
          <leafValues>
            -7.4701672792434692e-01 5.5628597736358643e-01</leafValues></_>
        <_>
          <internalNodes>
            0 -1 8 292900109 1368769000 -2147446019 -1819025175
            1075413198 1099522380 -1995128600 -139949376</internalNodes>
          <leafValues>
            -7.9744660854339600e-01 4.2833697795867920e-01</leafValues></_>
        <_>
          <internalNodes>
            0 -1 11 -184040725 -536606582 16908868 1996837894
            -1369402229 -1065205054 50520641 -1044386677</internalNodes>
          <leafValues>
            -5.8413964509963989e-01 6.3263165950775146e-01</leafValues></_>
        <_>
          <internalNodes>
            0 -1 28 281590005 -1655500290 -1853353481 1972371479
            -1860402535 -240641837 -493335811 193200613</internalNodes>
          <leafValues>
            -6.5194147825241089e-01 5.3311586380004883e-01</leafValues></_>
        <_>
          <internalNodes>
            0 -1 42 1398612189 -1819443189 285873566 -1817442538
            172181611 -119996198 503393163 -261786417</internalNodes>
          <leafValues>
            -6.9106835126876831e-01 5.1980108022689819e-01</leafValues></_>
        <_>
          <internalNodes>
            0 -1 40 2118898430 -1407384937 607067343 -585256432
            1753944287 713703482 276998883 496577211</internalNodes>
          <leafValues>
            -8.2660973072052002e-01 4.2744958400726318e-01</leafValues></_></weakClassifiers></_>
    <!-- stage 18 -->
    <_>
      <maxWeakCount>6</maxWeakCount>
      <stageThreshold>-5.6882846355438232e-01</stageThreshold>
      <weakClassifiers>
        <_>
          <internalNodes>
            0 -1 65 -2075134486 -995261043 328011 -993988385 -1962735590
            989855784 2215937 1929030384</internalNodes>
          <leafValues>
            -8.7987989187240601e-01 5.0422102212905884e-01</leafValues></_>
        <_>
          <internalNodes>
            0 -1 49 -840963409 1520268315 1677788965 -620243694
            869389311 445323410 1879605967 -134903291</internalNodes>
          <leafValues>
            -5.7055503129959106e-01 5.8805823326110840e-01</leafValues></_>
        <_>
          <internalNodes>
            0 -1 82 1234948304 -1774100143 1076199755 1897926665
            1267976384 -1375563776 -2105316822 857460399</internalNodes>
          <leafValues>
            -6.9236028194427490e-01 5.5952042341232300e-01</leafValues></_>
        <_>
          <internalNodes>
            0 -1 37 354228053 1939672497 -1599317840 1157712019
            1208496442 -68742519 -604992284 -6979454</internalNodes>
          <leafValues>
            -6.5198576450347900e-01 5.4911637306213379e-01</leafValues></_>
        <_>
          <internalNodes>
            0 -1 35 -738092904 -184188279 410572820 -338719983
            -1719418117 -360611615 -1466255125 331037712</internalNodes>
          <leafValues>
            -7.3883557319641113e-01 4.7123780846595764e-01</leafValues></_>
        <_>
          <internalNodes>
            0 -1 38 425206039 -1655566285 -1777282465 1397756215
            1384120507 -1675984551 -1287115350 -1152771534</internalNodes>
          <leafValues>
            -6.4329445362091064e-01 6.0507267713546753e-01</leafValues></_></weakClassifiers></_>
    <!-- stage 19 -->
    <_>
      <maxWeakCount>5</maxWeakCount>
      <stageThreshold>-8.7807625532150269e-01</stageThreshold>
      <weakClassifiers>
        <_>
          <internalNodes>
            0 -1 23 -73645465 1426147591 -1455242566 165151829
            -2045820105 -392364011 833121092 -1997505962</internalNodes>
          <leafValues>
            -6.3860368728637695e-01 5.8746737241744995e-01</leafValues></_>
        <_>
          <internalNodes>
            0 -1 75 -711074339 -2060779260 -1576989671 -1132396492
            -1608346708 1879179300 287331408 -1089123</internalNodes>
          <leafValues>
            -6.9482189416885376e-01 4.8049661517143250e-01</leafValues></_>
        <_>
          <internalNodes>
            0 -1 21 -645164887 1396817987 -1861124001 1934856917
            -1459506258 -1878809759 16892054 -2096115556</internalNodes>
          <leafValues>
            -5.9690999984741211e-01 5.7253825664520264e-01</leafValues></_>
        <_>
          <internalNodes>
            0 -1 78 -745897775 1360727107 -801074465 1377386843
            -1475765793 -1165983470 -1331036529 2015005802</internalNodes>
          <leafValues>
            -5.9822493791580200e-01 6.0014766454696655e-01</leafValues></_>
        <_>
          <internalNodes>
            0 -1 0 -502534427 -1115602684 -720369086 -216824571
            164555152 807534662 -1063847492 -201861342</internalNodes>
          <leafValues>
            -7.2320675849914551e-01 5.1394337415695190e-01</leafValues></_></weakClassifiers></_></stages>
  <features>
    <_>
      <rect>
        0 7 10 7</rect></_>
    <_>
      <rect>
        0 14 5 5</rect></_>
    <_>
      <rect>
        0 14 6 5</rect></_>
    <_>
      <rect>
        1 11 10 8</rect></_>
    <_>
      <rect>
        2 7 7 5</rect></_>
    <_>
      <rect>
        2 13 7 4</rect></_>
    <_>
      <rect>
        4 6 5 6</rect></_>
    <_>
      <rect>
        4 10 3 4</rect></_>
    <_>
      <rect>
        5 0 9 10</rect></_>
    <_>
      <rect>
        6 0 11 10</rect></_>
    <_>
      <rect>
        6 4 11 8</rect></_>
    <_>
      <rect>
        6 13 2 3</rect></_>
    <_>
      <rect>
        6 14 4 6</rect></_>
    <_>
      <rect>
        6 20 9 4</rect></_>
    <_>
      <rect>
        6 21 6 3</rect></_>
    <_>
      <rect>
        7 8 2 4</rect></_>
    <_>
      <rect>
        7 11 2 4</rect></_>
    <_>
      <rect>
        7 13 7 4</rect></_>
    <_>
      <rect>
        7 17 2 3</rect></_>
    <_>
      <rect>
        7 17 9 6</rect></_>
    <_>
      <rect>
        8 7 5 2</rect></_>
    <_>
      <rect>
        8 8 2 4</rect></_>
    <_>
      <rect>
        8 14 2 4</rect></_>
    <_>
      <rect>
        8 14 6 4</rect></_>
    <_>
      <rect>
        9 6 7 5</rect></_>
    <_>
      <rect>
        9 9 4 2</rect></_>
    <_>
      <rect>
        9 17 3 5</rect></_>
    <_>
      <rect>
        9 21 8 4</rect></_>
    <_>
      <rect>
        10 4 6 3</rect></_>
    <_>
      <rect>
        10 17 6 3</rect></_>
    <_>
      <rect>
        10 20 4 5</rect></_>
    <_>
      <rect>
        11 7 6 5</rect></_>
    <_>
      <rect>
        12 7 6 5</rect></_>
    <_>
      <rect>
        12 11 4 6</rect></_>
    <_>
      <rect>
        12 20 3 3</rect></_>
    <_>
      <rect>
        13 11 5 2</rect></_>
    <_>
      <rect>
        13 16 2 3</rect></_>
    <_>
      <rect>
        13 18 6 2</rect></_>
    <_>
      <rect>
        13 28 3 2</rect></_>
    <_>
      <rect>
        14 15 3 3</rect></_>
    <_>
      <rect>
        14 16 4 2</rect></_>
    <_>
      <rect>
        14 17 4 2</rect></_>
    <_>
      <rect>
        14 18 4 2</rect></_>
    <_>
      <rect>
        15 6 8 7</rect></_>
    <_>
      <rect>
        15 14 2 4</rect></_>
    <_>
      <rect>
        15 17 4 2</rect></_>
    <_>
      <rect>
        16 13 6 5</rect></_>
    <_>
      <rect>
        16 15 2 3</rect></_>
    <_>
      <rect>
        16 16 5 2</rect></_>
    <_>
      <rect>
        16 18 2 3</rect></_>
    <_>
      <rect>
        16 20 2 1</rect></_>
    <_>
      <rect>
        17 11 5 6</rect></_>
    <_>
      <rect>
        17 15 2 3</rect></_>
    <_>
      <rect>
        17 17 2 2</rect></_>
    <_>
      <rect>
        17 18 2 2</rect></_>
    <_>
      <rect>
        17 19 2 1</rect></_>
    <_>
      <rect>
        18 11 2 6</rect></_>
    <_>
      <rect>
        18 13 2 5</rect></_>
    <_>
      <rect>
        18 14 2 4</rect></_>
    <_>
      <rect>
        18 17 2 2</rect></_>
    <_>
      <rect>
        18 17 2 3</rect></_>
    <_>
      <rect>
        18 18 1 2</rect></_>
    <_>
      <rect>
        18 19 1 1</rect></_>
    <_>
      <rect>
        19 7 5 3</rect></_>
    <_>
      <rect>
        19 18 4 2</rect></_>
    <_>
      <rect>
        19 19 1 1</rect></_>
    <_>
      <rect>
        20 14 2 3</rect></_>
    <_>
      <rect>
        20 15 3 3</rect></_>
    <_>
      <rect>
        20 16 3 6</rect></_>
    <_>
      <rect>
        20 18 2 3</rect></_>
    <_>
      <rect>
        21 18 3 5</rect></_>
    <_>
      <rect>
        21 19 2 2</rect></_>
    <_>
      <rect>
        22 13 4 2</rect></_>
    <_>
      <rect>
        22 16 2 3</rect></_>
    <_>
      <rect>
        22 19 5 3</rect></_>
    <_>
      <rect>
        22 20 2 5</rect></_>
    <_>
      <rect>
        23 9 2 2</rect></_>
    <_>
      <rect>
        23 14 4 2</rect></_>
    <_>
      <rect>
        24 7 3 3</rect></_>
    <_>
      <rect>
        24 12 4 2</rect></_>
    <_>
      <rect>
        25 9 2 3</rect></_>
    <_>
      <rect>
        25 12 2 2</rect></_>
    <_>
      <rect>
        25 14 2 2</rect></_>
    <_>
      <rect>
        26 17 2 6</rect></_>
    <_>
      <rect>
        27 13 3 2</rect></_>
    <_>
      <rect>
        27 15 2 3</rect></_>
    <_>
      <rect>
        27 16 2 3</rect></_>
    <_>
      <rect>
        27 18 2 3</rect></_>
    <_>
      <rect>
        28 9 2 4</rect></_>
    <_>
      <rect>
        28 11 2 3</rect></_>
    <_>
      <rect>
        28 15 2 3</rect></_></features></cascade>
</opencv_storage>
